{"learner":{"attributes":{"scikit_learn":"{\"_estimator_type\": \"regressor\"}"},"feature_names":["electricity","is_day ()","is_day ()_lag_2"],"feature_types":["float","int","float"],"gradient_booster":{"model":{"gbtree_model_param":{"num_parallel_tree":"1","num_trees":"200"},"iteration_indptr":[0,1,2,3,4,5,6,7,8,9,10,11,12,13,14,15,16,17,18,19,20,21,22,23,24,25,26,27,28,29,30,31,32,33,34,35,36,37,38,39,40,41,42,43,44,45,46,47,48,49,50,51,52,53,54,55,56,57,58,59,60,61,62,63,64,65,66,67,68,69,70,71,72,73,74,75,76,77,78,79,80,81,82,83,84,85,86,87,88,89,90,91,92,93,94,95,96,97,98,99,100,101,102,103,104,105,106,107,108,109,110,111,112,113,114,115,116,117,118,119,120,121,122,123,124,125,126,127,128,129,130,131,132,133,134,135,136,137,138,139,140,141,142,143,144,145,146,147,148,149,150,151,152,153,154,155,156,157,158,159,160,161,162,163,164,165,166,167,168,169,170,171,172,173,174,175,176,177,178,179,180,181,182,183,184,185,186,187,188,189,190,191,192,193,194,195,196,197,198,199,200],"tree_info":[0,0,0,0,0,0,0,0,0,0,0,0,0,0,0,0,0,0,0,0,0,0,0,0,0,0,0,0,0,0,0,0,0,0,0,0,0,0,0,0,0,0,0,0,0,0,0,0,0,0,0,0,0,0,0,0,0,0,0,0,0,0,0,0,0,0,0,0,0,0,0,0,0,0,0,0,0,0,0,0,0,0,0,0,0,0,0,0,0,0,0,0,0,0,0,0,0,0,0,0,0,0,0,0,0,0,0,0,0,0,0,0,0,0,0,0,0,0,0,0,0,0,0,0,0,0,0,0,0,0,0,0,0,0,0,0,0,0,0,0,0,0,0,0,0,0,0,0,0,0,0,0,0,0,0,0,0,0,0,0,0,0,0,0,0,0,0,0,0,0,0,0,0,0,0,0,0,0,0,0,0,0,0,0,0,0,0,0,0,0,0,0,0,0,0,0,0,0,0,0],"trees":[{"base_weights":[5.409616E-10,-1.3894615E-1,2.966331E-1,-2.8896602E-2,-1.7555058E-1,1.9610728E-1,4.2791644E-1,-9.599761E-2,4.56754E-2,-8.923262E-3,-1.3848324E-1,1.4416036E-1,2.6690266E-1,3.7134996E-1,5.122658E-1,-7.864728E-3,-2.7338686E-4,-2.2419502E-3,6.0421648E-3,-8.682942E-3,-3.5086896E-3,6.5272003E-3,9.395146E-3,1.065095E-2,1.373148E-2,1.69613E-2,2.0342506E-2,2.3418127E-2,2.7766917E-2],"categories":[],"categories_nodes":[],"categories_segments":[],"categories_sizes":[],"default_left":[0,0,0,0,0,0,0,0,0,0,0,0,0,0,0,0,0,0,0,0,0,0,0,0,0,0,0,0,0],"id":0,"left_children":[1,3,5,7,9,11,13,15,17,-1,19,21,23,25,27,-1,-1,-1,-1,-1,-1,-1,-1,-1,-1,-1,-1,-1,-1],"loss_changes":[2.1745576E2,1.4468613E1,2.2127243E1,4.497848E0,2.665558E-1,3.4736366E0,3.288086E0,2.6239138E0,2.9038272E0,0E0,4.7078156E-1,3.048439E-1,1.0928917E-1,3.637619E-1,2.8829956E-1,0E0,0E0,0E0,0E0,0E0,0E0,0E0,0E0,0E0,0E0,0E0,0E0,0E0,0E0],"parents":[2147483647,0,0,1,1,2,2,3,3,4,4,5,5,6,6,7,7,8,8,10,10,11,11,12,12,13,13,14,14],"right_children":[2,4,6,8,10,12,14,16,18,-1,20,22,24,26,28,-1,-1,-1,-1,-1,-1,-1,-1,-1,-1,-1,-1,-1,-1],"split_conditions":[2.63E-1,1E0,5.19E-1,1E0,9E-3,4.1E-1,6.53E-1,1.71E-1,8.9E-2,-8.923262E-3,1E0,3.83E-1,4.25E-1,5.8E-1,7.13E-1,-7.864728E-3,-2.7338686E-4,-2.2419502E-3,6.0421648E-3,-8.682942E-3,-3.5086896E-3,6.5272003E-3,9.395146E-3,1.065095E-2,1.373148E-2,1.69613E-2,2.0342506E-2,2.3418127E-2,2.7766917E-2],"split_indices":[0,1,0,2,0,0,0,0,0,0,2,0,0,0,0,0,0,0,0,0,0,0,0,0,0,0,0,0,0],"split_type":[0,0,0,0,0,0,0,0,0,0,0,0,0,0,0,0,0,0,0,0,0,0,0,0,0,0,0,0,0],"sum_hessian":[5.274E3,3.592E3,1.682E3,8.97E2,2.695E3,9.54E2,7.28E2,4.72E2,4.25E2,2.495E3,2E2,5.52E2,4.02E2,4.39E2,2.89E2,2.81E2,1.91E2,1.93E2,2.32E2,1.31E2,6.9E1,4.24E2,1.28E2,5.4E1,3.48E2,2.36E2,2.03E2,1.49E2,1.4E2],"tree_param":{"num_deleted":"0","num_feature":"3","num_nodes":"29","size_leaf_vector":"1"}},{"base_weights":[1.9593097E-5,-1.314328E-1,2.831176E-1,-2.6333818E-2,-1.6678089E-1,1.8752773E-1,4.06642E-1,-8.959733E-2,4.4511914E-2,-8.477277E-3,-1.3161974E-1,1.3813195E-1,2.5361803E-1,3.5286728E-1,4.8682904E-1,-7.3589245E-3,-4.678351E-5,-2.1304304E-3,5.7969666E-3,-8.252083E-3,-3.3357614E-3,6.261295E-3,8.92903E-3,1.1705809E-2,1.3789177E-2,1.6376069E-2,1.9696517E-2,2.2255026E-2,2.638842E-2],"categories":[],"categories_nodes":[],"categories_segments":[],"categories_sizes":[],"default_left":[0,0,0,0,0,0,0,0,0,0,0,0,0,0,0,0,0,0,0,0,0,0,0,0,0,0,0,0,0],"id":1,"left_children":[1,3,5,7,9,11,13,15,17,-1,19,21,23,25,27,-1,-1,-1,-1,-1,-1,-1,-1,-1,-1,-1,-1,-1,-1],"loss_changes":[1.9634058E2,1.3380928E1,1.9677994E1,4.073599E0,2.3975372E-1,3.0499992E0,2.9716873E0,2.4503784E0,2.6745186E0,0E0,4.2500544E-1,2.6110077E-1,1.0963631E-1,3.289261E-1,2.6050568E-1,0E0,0E0,0E0,0E0,0E0,0E0,0E0,0E0,0E0,0E0,0E0,0E0,0E0,0E0],"parents":[2147483647,0,0,1,1,2,2,3,3,4,4,5,5,6,6,7,7,8,8,10,10,11,11,12,12,13,13,14,14],"right_children":[2,4,6,8,10,12,14,16,18,-1,20,22,24,26,28,-1,-1,-1,-1,-1,-1,-1,-1,-1,-1,-1,-1,-1,-1],"split_conditions":[2.66E-1,1E0,5.19E-1,1E0,9E-3,4.1E-1,6.53E-1,1.75E-1,8.9E-2,-8.477277E-3,1E0,3.83E-1,4.66E-1,5.88E-1,7.13E-1,-7.3589245E-3,-4.678351E-5,-2.1304304E-3,5.7969666E-3,-8.252083E-3,-3.3357614E-3,6.261295E-3,8.92903E-3,1.1705809E-2,1.3789177E-2,1.6376069E-2,1.9696517E-2,2.2255026E-2,2.638842E-2],"split_indices":[0,1,0,2,0,0,0,0,0,0,2,0,0,0,0,0,0,0,0,0,0,0,0,0,0,0,0,0,0],"split_type":[0,0,0,0,0,0,0,0,0,0,0,0,0,0,0,0,0,0,0,0,0,0,0,0,0,0,0,0,0],"sum_hessian":[5.274E3,3.602E3,1.672E3,9.07E2,2.695E3,9.44E2,7.28E2,4.79E2,4.28E2,2.495E3,2E2,5.42E2,4.02E2,4.39E2,2.89E2,2.9E2,1.89E2,1.93E2,2.35E2,1.31E2,6.9E1,4.14E2,1.28E2,2.2E2,1.82E2,2.77E2,1.62E2,1.49E2,1.4E2],"tree_param":{"num_deleted":"0","num_feature":"3","num_nodes":"29","size_leaf_vector":"1"}},{"base_weights":[3.787112E-5,-1.2541787E-1,2.678706E-1,-2.6110409E-2,-1.5844929E-1,1.7709064E-1,3.8642612E-1,-8.668511E-2,4.1208714E-2,-8.053584E-3,-1.250964E-1,1.3019605E-1,2.410004E-1,3.353059E-1,4.6265534E-1,-7.1062446E-3,-2.4032337E-4,-2.0244576E-3,5.4527484E-3,-7.842606E-3,-3.1713562E-3,4.6717166E-3,7.169963E-3,1.1123167E-2,1.3103487E-2,1.5301466E-2,1.8383738E-2,2.1149695E-2,2.5078356E-2],"categories":[],"categories_nodes":[],"categories_segments":[],"categories_sizes":[],"default_left":[0,0,0,0,0,0,0,0,0,0,0,0,0,0,0,0,0,0,0,0,0,0,0,0,0,0,0,0,0],"id":2,"left_children":[1,3,5,7,9,11,13,15,17,-1,19,21,23,25,27,-1,-1,-1,-1,-1,-1,-1,-1,-1,-1,-1,-1,-1,-1],"loss_changes":[1.772797E2,1.1781857E1,1.8044792E1,3.6654692E0,2.1564484E-1,2.83078E0,2.6856766E0,2.1464214E0,2.3656883E0,0E0,3.8367987E-1,2.5501156E-1,9.90963E-2,3.0444717E-1,2.3539352E-1,0E0,0E0,0E0,0E0,0E0,0E0,0E0,0E0,0E0,0E0,0E0,0E0,0E0,0E0],"parents":[2147483647,0,0,1,1,2,2,3,3,4,4,5,5,6,6,7,7,8,8,10,10,11,11,12,12,13,13,14,14],"right_children":[2,4,6,8,10,12,14,16,18,-1,20,22,24,26,28,-1,-1,-1,-1,-1,-1,-1,-1,-1,-1,-1,-1,-1,-1],"split_conditions":[2.63E-1,1E0,5.19E-1,1E0,9E-3,4.1E-1,6.53E-1,1.71E-1,8.9E-2,-8.053584E-3,1E0,2.99E-1,4.66E-1,5.8E-1,7.13E-1,-7.1062446E-3,-2.4032337E-4,-2.0244576E-3,5.4527484E-3,-7.842606E-3,-3.1713562E-3,4.6717166E-3,7.169963E-3,1.1123167E-2,1.3103487E-2,1.5301466E-2,1.8383738E-2,2.1149695E-2,2.5078356E-2],"split_indices":[0,1,0,2,0,0,0,0,0,0,2,0,0,0,0,0,0,0,0,0,0,0,0,0,0,0,0,0,0],"split_type":[0,0,0,0,0,0,0,0,0,0,0,0,0,0,0,0,0,0,0,0,0,0,0,0,0,0,0,0,0],"sum_hessian":[5.274E3,3.592E3,1.682E3,8.97E2,2.695E3,9.54E2,7.28E2,4.72E2,4.25E2,2.495E3,2E2,5.52E2,4.02E2,4.39E2,2.89E2,2.81E2,1.91E2,1.93E2,2.32E2,1.31E2,6.9E1,1.48E2,4.04E2,2.2E2,1.82E2,2.36E2,2.03E2,1.49E2,1.4E2],"tree_param":{"num_deleted":"0","num_feature":"3","num_nodes":"29","size_leaf_vector":"1"}},{"base_weights":[5.3607597E-5,-1.1915338E-1,2.54546E-1,-2.4809252E-2,-1.505339E-1,1.6827388E-1,3.672144E-1,-8.236639E-2,3.9156325E-2,-7.651066E-3,-1.1889638E-1,1.2370765E-1,2.290105E-1,3.1861714E-1,4.3968198E-1,-6.7521925E-3,-2.2836965E-4,-2.677582E-3,4.673188E-3,-7.4534463E-3,-3.0150537E-3,5.2454546E-3,7.425687E-3,9.00739E-3,1.1802737E-2,1.4775162E-2,1.7804187E-2,2.009926E-2,2.383333E-2],"categories":[],"categories_nodes":[],"categories_segments":[],"categories_sizes":[],"default_left":[0,0,0,0,0,0,0,0,0,0,0,0,0,0,0,0,0,0,0,0,0,0,0,0,0,0,0,0,0],"id":3,"left_children":[1,3,5,7,9,11,13,15,17,-1,19,21,23,25,27,-1,-1,-1,-1,-1,-1,-1,-1,-1,-1,-1,-1,-1,-1],"loss_changes":[1.6005943E2,1.0633587E1,1.6297203E1,3.3093698E0,1.9396973E-1,2.5566654E0,2.4272537E0,1.9378572E0,2.1498008E0,0E0,3.4637284E-1,2.4229336E-1,9.618759E-2,2.7581406E-1,2.1270752E-1,0E0,0E0,0E0,0E0,0E0,0E0,0E0,0E0,0E0,0E0,0E0,0E0,0E0,0E0],"parents":[2147483647,0,0,1,1,2,2,3,3,4,4,5,5,6,6,7,7,8,8,10,10,11,11,12,12,13,13,14,14],"right_children":[2,4,6,8,10,12,14,16,18,-1,20,22,24,26,28,-1,-1,-1,-1,-1,-1,-1,-1,-1,-1,-1,-1,-1,-1],"split_conditions":[2.63E-1,1E0,5.19E-1,1E0,9E-3,4.1E-1,6.53E-1,1.71E-1,6.3E-2,-7.651066E-3,1E0,3.54E-1,4.25E-1,5.88E-1,7.13E-1,-6.7521925E-3,-2.2836965E-4,-2.677582E-3,4.673188E-3,-7.4534463E-3,-3.0150537E-3,5.2454546E-3,7.425687E-3,9.00739E-3,1.1802737E-2,1.4775162E-2,1.7804187E-2,2.009926E-2,2.383333E-2],"split_indices":[0,1,0,2,0,0,0,0,0,0,2,0,0,0,0,0,0,0,0,0,0,0,0,0,0,0,0,0,0],"split_type":[0,0,0,0,0,0,0,0,0,0,0,0,0,0,0,0,0,0,0,0,0,0,0,0,0,0,0,0,0],"sum_hessian":[5.274E3,3.592E3,1.682E3,8.97E2,2.695E3,9.54E2,7.28E2,4.72E2,4.25E2,2.495E3,2E2,5.52E2,4.02E2,4.39E2,2.89E2,2.81E2,1.91E2,1.57E2,2.68E2,1.31E2,6.9E1,3.17E2,2.35E2,5.4E1,3.48E2,2.77E2,1.62E2,1.49E2,1.4E2],"tree_param":{"num_deleted":"0","num_feature":"3","num_nodes":"29","size_leaf_vector":"1"}},{"base_weights":[6.739752E-5,-1.1271346E-1,2.4295406E-1,-2.2622325E-2,-1.4301392E-1,1.6092199E-1,3.4895864E-1,-7.697805E-2,3.8248006E-2,-7.2686668E-3,-1.1300365E-1,1.18552126E-1,2.1761161E-1,2.8832132E-1,4.0150765E-1,-6.3224076E-3,-4.0276496E-5,-1.8587708E-3,5.0043273E-3,-7.083597E-3,-2.8664544E-3,5.3431406E-3,7.7619143E-3,1.001621E-2,1.1864981E-2,1.3186279E-2,1.5330495E-2,1.8530574E-2,2.2650115E-2],"categories":[],"categories_nodes":[],"categories_segments":[],"categories_sizes":[],"default_left":[0,0,0,0,0,0,0,0,0,0,0,0,0,0,0,0,0,0,0,0,0,0,0,0,0,0,0,0,0],"id":4,"left_children":[1,3,5,7,9,11,13,15,17,-1,19,21,23,25,27,-1,-1,-1,-1,-1,-1,-1,-1,-1,-1,-1,-1,-1,-1],"loss_changes":[1.4452528E2,9.832249E0,1.4491882E1,3.0071993E0,1.7446136E-1,2.244028E0,2.2071457E0,1.8086643E0,2.0046086E0,0E0,3.1269312E-1,2.1626902E-1,8.9624405E-2,7.2977066E-2,4.4940948E-1,0E0,0E0,0E0,0E0,0E0,0E0,0E0,0E0,0E0,0E0,0E0,0E0,0E0,0E0],"parents":[2147483647,0,0,1,1,2,2,3,3,4,4,5,5,6,6,7,7,8,8,10,10,11,11,12,12,13,13,14,14],"right_children":[2,4,6,8,10,12,14,16,18,-1,20,22,24,26,28,-1,-1,-1,-1,-1,-1,-1,-1,-1,-1,-1,-1,-1,-1],"split_conditions":[2.66E-1,1E0,5.19E-1,1E0,9E-3,4.1E-1,6.08E-1,1.75E-1,8.9E-2,-7.2686668E-3,1E0,3.83E-1,4.66E-1,5.58E-1,7.13E-1,-6.3224076E-3,-4.0276496E-5,-1.8587708E-3,5.0043273E-3,-7.083597E-3,-2.8664544E-3,5.3431406E-3,7.7619143E-3,1.001621E-2,1.1864981E-2,1.3186279E-2,1.5330495E-2,1.8530574E-2,2.2650115E-2],"split_indices":[0,1,0,2,0,0,0,0,0,0,2,0,0,0,0,0,0,0,0,0,0,0,0,0,0,0,0,0,0],"split_type":[0,0,0,0,0,0,0,0,0,0,0,0,0,0,0,0,0,0,0,0,0,0,0,0,0,0,0,0,0],"sum_hessian":[5.274E3,3.602E3,1.672E3,9.07E2,2.695E3,9.44E2,7.28E2,4.79E2,4.28E2,2.495E3,2E2,5.42E2,4.02E2,3.41E2,3.87E2,2.9E2,1.89E2,1.93E2,2.35E2,1.31E2,6.9E1,4.14E2,1.28E2,2.2E2,1.82E2,1.52E2,1.89E2,2.47E2,1.4E2],"tree_param":{"num_deleted":"0","num_feature":"3","num_nodes":"29","size_leaf_vector":"1"}},{"base_weights":[7.999981E-5,-1.0708346E-1,2.3086894E-1,-1.3149966E-1,-5.996732E-3,1.5291291E-1,3.3160633E-1,-7.842646E-2,-1.3603874E-1,-6.3920595E-2,8.580908E-2,1.1264866E-1,2.0678534E-1,2.8870097E-1,3.9937705E-1,-7.0051076E-3,-2.4522E-3,-6.9053783E-3,-5.3048055E-3,-5.6620534E-3,-3.8273196E-5,2.3807096E-3,6.420318E-3,5.0766277E-3,7.3768273E-3,8.073503E-3,1.066671E-2,1.3109448E-2,1.5835665E-2,1.8258309E-2,2.1525642E-2],"categories":[],"categories_nodes":[],"categories_segments":[],"categories_sizes":[],"default_left":[0,0,0,0,0,0,0,0,0,0,0,0,0,0,0,0,0,0,0,0,0,0,0,0,0,0,0,0,0,0,0],"id":5,"left_children":[1,3,5,7,9,11,13,15,17,19,21,23,25,27,29,-1,-1,-1,-1,-1,-1,-1,-1,-1,-1,-1,-1,-1,-1,-1,-1],"loss_changes":[1.3048677E2,8.891968E0,1.3087502E1,6.884346E-1,3.738544E0,2.026537E0,2.0044327E0,4.1174316E-1,1.5086746E-1,1.3424098E0,4.364295E-1,1.9560432E-1,8.5149765E-2,2.5115967E-1,1.410408E-1,0E0,0E0,0E0,0E0,0E0,0E0,0E0,0E0,0E0,0E0,0E0,0E0,0E0,0E0,0E0,0E0],"parents":[2147483647,0,0,1,1,2,2,3,3,4,4,5,5,6,6,7,7,8,8,9,9,10,10,11,11,12,12,13,13,14,14],"right_children":[2,4,6,8,10,12,14,16,18,20,22,24,26,28,30,-1,-1,-1,-1,-1,-1,-1,-1,-1,-1,-1,-1,-1,-1,-1,-1],"split_conditions":[2.66E-1,6.3E-2,5.19E-1,1E0,1E0,4.1E-1,6.58E-1,1E0,9E-3,1.75E-1,1.25E-1,3.83E-1,4.25E-1,5.8E-1,7.13E-1,-7.0051076E-3,-2.4522E-3,-6.9053783E-3,-5.3048055E-3,-5.6620534E-3,-3.8273196E-5,2.3807096E-3,6.420318E-3,5.0766277E-3,7.3768273E-3,8.073503E-3,1.066671E-2,1.3109448E-2,1.5835665E-2,1.8258309E-2,2.1525642E-2],"split_indices":[0,0,0,1,2,0,0,2,0,0,0,0,0,0,0,0,0,0,0,0,0,0,0,0,0,0,0,0,0,0,0],"split_type":[0,0,0,0,0,0,0,0,0,0,0,0,0,0,0,0,0,0,0,0,0,0,0,0,0,0,0,0,0,0,0],"sum_hessian":[5.274E3,3.602E3,1.672E3,2.901E3,7.01E2,9.44E2,7.28E2,2.3E2,2.671E3,4.3E2,2.71E2,5.42E2,4.02E2,4.49E2,2.79E2,7.3E1,1.57E2,2.495E3,1.76E2,2.41E2,1.89E2,1.44E2,1.27E2,4.14E2,1.28E2,5.4E1,3.48E2,2.36E2,2.13E2,1.39E2,1.4E2],"tree_param":{"num_deleted":"0","num_feature":"3","num_nodes":"31","size_leaf_vector":"1"}},{"base_weights":[9.1421316E-5,-9.894555E-2,2.2560039E-1,-1.2493215E-1,-2.3699987E-4,1.642621E-1,3.3512932E-1,-7.454608E-2,-1.2924138E-1,-4.8142493E-2,8.385695E-2,1.1751372E-1,2.1376185E-1,2.9865113E-1,3.9046207E-1,-6.6595855E-3,-2.3303663E-3,-6.557291E-3,-4.9944622E-3,-5.2588005E-3,6.6016795E-4,2.3490598E-3,6.366571E-3,5.1448103E-3,7.2494163E-3,9.459402E-3,1.1341745E-2,1.3840652E-2,1.6113719E-2,1.7764948E-2,2.0456992E-2],"categories":[],"categories_nodes":[],"categories_segments":[],"categories_sizes":[],"default_left":[0,0,0,0,0,0,0,0,0,0,0,0,0,0,0,0,0,0,0,0,0,0,0,0,0,0,0,0,0,0,0],"id":6,"left_children":[1,3,5,7,9,11,13,15,17,19,21,23,25,27,29,-1,-1,-1,-1,-1,-1,-1,-1,-1,-1,-1,-1,-1,-1,-1,-1],"loss_changes":[1.17832726E2,9.403622E0,1.0761444E1,6.2046814E-1,3.0858872E0,2.36759E0,1.048027E0,3.722825E-1,1.3626099E-1,1.7087882E0,4.396944E-1,1.9954109E-1,1.1803436E-1,9.238052E-2,3.0670166E-3,0E0,0E0,0E0,0E0,0E0,0E0,0E0,0E0,0E0,0E0,0E0,0E0,0E0,0E0,0E0,0E0],"parents":[2147483647,0,0,1,1,2,2,3,3,4,4,5,5,6,6,7,7,8,8,9,9,10,10,11,11,12,12,13,13,14,14],"right_children":[2,4,6,8,10,12,14,16,18,20,22,24,26,28,30,-1,-1,-1,-1,-1,-1,-1,-1,-1,-1,-1,-1,-1,-1,-1,-1],"split_conditions":[2.8E-1,6.3E-2,5.58E-1,1E0,1E0,4.25E-1,6.77E-1,1E0,1E-2,1.89E-1,1.27E-1,3.83E-1,4.69E-1,6.08E-1,7.13E-1,-6.6595855E-3,-2.3303663E-3,-6.557291E-3,-4.9944622E-3,-5.2588005E-3,6.6016795E-4,2.3490598E-3,6.366571E-3,5.1448103E-3,7.2494163E-3,9.459402E-3,1.1341745E-2,1.3840652E-2,1.6113719E-2,1.7764948E-2,2.0456992E-2],"split_indices":[0,0,0,1,2,0,0,2,0,0,0,0,0,0,0,0,0,0,0,0,0,0,0,0,0,0,0,0,0,0,0],"split_type":[0,0,0,0,0,0,0,0,0,0,0,0,0,0,0,0,0,0,0,0,0,0,0,0,0,0,0,0,0,0,0],"sum_hessian":[5.274E3,3.665E3,1.609E3,2.901E3,7.64E2,1.033E3,5.76E2,2.3E2,2.671E3,4.87E2,2.77E2,5.33E2,5E2,3.51E2,2.25E2,7.3E1,1.57E2,2.505E3,1.66E2,2.52E2,2.35E2,1.51E2,1.26E2,3.51E2,1.82E2,1.79E2,3.21E2,1.89E2,1.62E2,8.5E1,1.4E2],"tree_param":{"num_deleted":"0","num_feature":"3","num_nodes":"31","size_leaf_vector":"1"}},{"base_weights":[1.0295122E-4,-9.711226E-2,2.0764552E-1,-2.0378169E-2,-1.2263529E-1,1.37245E-1,2.9958633E-1,-6.7353524E-2,3.1827748E-2,-6.241545E-3,-9.87783E-2,9.574109E-2,1.8041024E-1,2.4876374E-1,3.4612063E-1,-5.7946923E-3,-4.531491E-4,-2.374747E-3,3.7554994E-3,-6.2217745E-3,-2.3263243E-3,3.5224538E-3,5.325584E-3,7.1932534E-3,9.617712E-3,1.1316705E-2,1.323393E-2,1.5616593E-2,1.9020919E-2],"categories":[],"categories_nodes":[],"categories_segments":[],"categories_sizes":[],"default_left":[0,0,0,0,0,0,0,0,0,0,0,0,0,0,0,0,0,0,0,0,0,0,0,0,0,0,0,0,0],"id":7,"left_children":[1,3,5,7,9,11,13,15,17,-1,19,21,23,25,27,-1,-1,-1,-1,-1,-1,-1,-1,-1,-1,-1,-1,-1,-1],"loss_changes":[1.0645011E2,7.0343437E0,1.0852409E1,2.2043912E0,1.2888718E-1,1.6936321E0,1.6379852E0,1.3372755E0,1.4661378E0,0E0,3.0523777E-1,1.2570524E-1,1.761713E-1,6.574631E-2,3.1923676E-1,0E0,0E0,0E0,0E0,0E0,0E0,0E0,0E0,0E0,0E0,0E0,0E0,0E0,0E0],"parents":[2147483647,0,0,1,1,2,2,3,3,4,4,5,5,6,6,7,7,8,8,10,10,11,11,12,12,13,13,14,14],"right_children":[2,4,6,8,10,12,14,16,18,-1,20,22,24,26,28,-1,-1,-1,-1,-1,-1,-1,-1,-1,-1,-1,-1,-1,-1],"split_conditions":[2.63E-1,1E0,5.19E-1,1E0,5E-3,3.95E-1,6.11E-1,1.52E-1,5.4E-2,-6.241545E-3,1E0,2.99E-1,4.25E-1,5.58E-1,6.92E-1,-5.7946923E-3,-4.531491E-4,-2.374747E-3,3.7554994E-3,-6.2217745E-3,-2.3263243E-3,3.5224538E-3,5.325584E-3,7.1932534E-3,9.617712E-3,1.1316705E-2,1.323393E-2,1.5616593E-2,1.9020919E-2],"split_indices":[0,1,0,2,0,0,0,0,0,0,2,0,0,0,0,0,0,0,0,0,0,0,0,0,0,0,0,0,0],"split_type":[0,0,0,0,0,0,0,0,0,0,0,0,0,0,0,0,0,0,0,0,0,0,0,0,0,0,0,0,0],"sum_hessian":[5.274E3,3.592E3,1.682E3,8.97E2,2.695E3,9.54E2,7.28E2,4.72E2,4.25E2,2.464E3,2.31E2,4.88E2,4.66E2,3.51E2,3.77E2,2.57E2,2.15E2,1.5E2,2.75E2,1.54E2,7.7E1,1.48E2,3.4E2,1.18E2,3.48E2,1.52E2,1.99E2,1.95E2,1.82E2],"tree_param":{"num_deleted":"0","num_feature":"3","num_nodes":"29","size_leaf_vector":"1"}},{"base_weights":[1.1016104E-4,-9.3232535E-2,1.9527125E-1,-2.1325657E-2,-1.1650901E-1,1.2397713E-1,2.7924544E-1,-6.9674864E-2,2.99178E-2,-5.9295944E-3,-9.387623E-2,8.7260745E-2,1.6513522E-1,2.3105513E-1,3.2770965E-1,-5.506081E-3,-7.622571E-4,-1.3371736E-3,4.269288E-3,-5.9126928E-3,-2.2114993E-3,3.022311E-3,4.8786122E-3,6.794548E-3,8.927661E-3,1.0632958E-2,1.2494048E-2,1.4804998E-2,1.807507E-2],"categories":[],"categories_nodes":[],"categories_segments":[],"categories_sizes":[],"default_left":[0,0,0,0,0,0,0,0,0,0,0,0,0,0,0,0,0,0,0,0,0,0,0,0,0,0,0,0,0],"id":8,"left_children":[1,3,5,7,9,11,13,15,17,-1,19,21,23,25,27,-1,-1,-1,-1,-1,-1,-1,-1,-1,-1,-1,-1,-1,-1],"loss_changes":[9.611216E1,5.9710865E0,1.0184959E1,2.16749E0,1.1595917E-1,1.3834276E0,1.7529793E0,9.889989E-1,1.3380097E0,0E0,2.755494E-1,1.2986279E-1,1.4643097E-1,8.400154E-2,3.0739975E-1,0E0,0E0,0E0,0E0,0E0,0E0,0E0,0E0,0E0,0E0,0E0,0E0,0E0,0E0],"parents":[2147483647,0,0,1,1,2,2,3,3,4,4,5,5,6,6,7,7,8,8,10,10,11,11,12,12,13,13,14,14],"right_children":[2,4,6,8,10,12,14,16,18,-1,20,22,24,26,28,-1,-1,-1,-1,-1,-1,-1,-1,-1,-1,-1,-1,-1,-1],"split_conditions":[2.55E-1,1E0,5.03E-1,1E0,5E-3,3.9E-1,6.08E-1,1.52E-1,9.7E-2,-5.9295944E-3,1E0,2.9E-1,4.25E-1,5.58E-1,6.92E-1,-5.506081E-3,-7.622571E-4,-1.3371736E-3,4.269288E-3,-5.9126928E-3,-2.2114993E-3,3.022311E-3,4.8786122E-3,6.794548E-3,8.927661E-3,1.0632958E-2,1.2494048E-2,1.4804998E-2,1.807507E-2],"split_indices":[0,1,0,2,0,0,0,0,0,0,2,0,0,0,0,0,0,0,0,0,0,0,0,0,0,0,0,0,0],"split_type":[0,0,0,0,0,0,0,0,0,0,0,0,0,0,0,0,0,0,0,0,0,0,0,0,0,0,0,0,0],"sum_hessian":[5.274E3,3.568E3,1.706E3,8.73E2,2.695E3,9.24E2,7.82E2,4.49E2,4.24E2,2.464E3,2.31E2,4.9E2,4.34E2,3.95E2,3.87E2,2.57E2,1.92E2,2.1E2,2.14E2,1.54E2,7.7E1,1.38E2,3.52E2,1.4E2,2.94E2,2.06E2,1.89E2,2.05E2,1.82E2],"tree_param":{"num_deleted":"0","num_feature":"3","num_nodes":"29","size_leaf_vector":"1"}},{"base_weights":[1.1645191E-4,-8.7656654E-2,1.8750127E-1,-1.0722419E-1,-5.4707644E-3,1.1963587E-1,2.653547E-1,-6.494939E-2,-1.108388E-1,-5.3042993E-2,6.95333E-2,8.46554E-2,1.569146E-1,2.1956076E-1,3.114089E-1,-5.773703E-3,-2.0437439E-3,-5.622941E-3,-4.2932574E-3,-4.5660427E-3,4.44469E-5,1.9315243E-3,5.4375534E-3,4.0715206E-3,8.523508E-3,6.4572305E-3,8.482791E-3,1.0103879E-2,1.1872633E-2,1.4353903E-2,1.7599752E-2],"categories":[],"categories_nodes":[],"categories_segments":[],"categories_sizes":[],"default_left":[0,0,0,0,0,0,0,0,0,0,0,0,0,0,0,0,0,0,0,0,0,0,0,0,0,0,0,0,0,0,0],"id":9,"left_children":[1,3,5,7,9,11,13,15,17,19,21,23,25,27,29,-1,-1,-1,-1,-1,-1,-1,-1,-1,-1,-1,-1,-1,-1,-1,-1],"loss_changes":[8.677619E1,5.777584E0,8.860474E0,4.3624878E-1,2.4728208E0,1.1616449E0,1.5829773E0,2.762584E-1,9.844589E-2,8.753861E-1,3.218106E-1,1.15360975E-1,1.3200283E-1,7.588959E-2,2.8209305E-1,0E0,0E0,0E0,0E0,0E0,0E0,0E0,0E0,0E0,0E0,0E0,0E0,0E0,0E0,0E0,0E0],"parents":[2147483647,0,0,1,1,2,2,3,3,4,4,5,5,6,6,7,7,8,8,9,9,10,10,11,11,12,12,13,13,14,14],"right_children":[2,4,6,8,10,12,14,16,18,20,22,24,26,28,30,-1,-1,-1,-1,-1,-1,-1,-1,-1,-1,-1,-1,-1,-1,-1,-1],"split_conditions":[2.63E-1,6.3E-2,5.03E-1,1E0,1E0,3.9E-1,6.08E-1,1E0,1E-2,1.81E-1,1.27E-1,1E0,4.25E-1,5.58E-1,7.13E-1,-5.773703E-3,-2.0437439E-3,-5.622941E-3,-4.2932574E-3,-4.5660427E-3,4.44469E-5,1.9315243E-3,5.4375534E-3,4.0715206E-3,8.523508E-3,6.4572305E-3,8.482791E-3,1.0103879E-2,1.1872633E-2,1.4353903E-2,1.7599752E-2],"split_indices":[0,0,0,1,2,0,0,2,0,0,0,2,0,0,0,0,0,0,0,0,0,0,0,0,0,0,0,0,0,0,0],"split_type":[0,0,0,0,0,0,0,0,0,0,0,0,0,0,0,0,0,0,0,0,0,0,0,0,0,0,0,0,0,0,0],"sum_hessian":[5.274E3,3.592E3,1.682E3,2.901E3,6.91E2,9E2,7.82E2,2.3E2,2.671E3,4.23E2,2.68E2,4.66E2,4.34E2,3.95E2,3.87E2,7.3E1,1.57E2,2.505E3,1.66E2,2.47E2,1.76E2,1.51E2,1.17E2,4.51E2,1.5E1,1.4E2,2.94E2,2.06E2,1.89E2,2.47E2,1.4E2],"tree_param":{"num_deleted":"0","num_feature":"3","num_nodes":"31","size_leaf_vector":"1"}},{"base_weights":[1.2325039E-4,-8.0666274E-2,1.8408242E-1,-1.0186909E-1,-1.2870634E-4,1.3412316E-1,2.7329177E-1,-6.173577E-2,-1.05300575E-1,-3.9627206E-2,6.920725E-2,9.621754E-2,1.7425784E-1,2.4307549E-1,3.1914505E-1,-5.488919E-3,-1.9422036E-3,-5.3522023E-3,-4.206627E-3,-4.083959E-3,7.752494E-4,1.9404881E-3,5.5352286E-3,4.202769E-3,5.954283E-3,7.6451595E-3,9.2827035E-3,1.1047314E-2,1.2902348E-2,1.51492525E-2,1.7648635E-2],"categories":[],"categories_nodes":[],"categories_segments":[],"categories_sizes":[],"default_left":[0,0,0,0,0,0,0,0,0,0,0,0,0,0,0,0,0,0,0,0,0,0,0,0,0,0,0,0,0,0,0],"id":10,"left_children":[1,3,5,7,9,11,13,15,17,19,21,23,25,27,29,-1,-1,-1,-1,-1,-1,-1,-1,-1,-1,-1,-1,-1,-1,-1,-1],"loss_changes":[7.841176E1,6.2601357E0,7.1388474E0,3.9315224E-1,2.0978224E0,1.5562878E0,7.218666E-1,2.4978429E-1,8.960724E-2,1.1326542E0,3.4637666E-1,1.3850927E-1,9.353733E-2,5.9606552E-2,1.6597748E-2,0E0,0E0,0E0,0E0,0E0,0E0,0E0,0E0,0E0,0E0,0E0,0E0,0E0,0E0,0E0,0E0],"parents":[2147483647,0,0,1,1,2,2,3,3,4,4,5,5,6,6,7,7,8,8,9,9,10,10,11,11,12,12,13,13,14,14],"right_children":[2,4,6,8,10,12,14,16,18,20,22,24,26,28,30,-1,-1,-1,-1,-1,-1,-1,-1,-1,-1,-1,-1,-1,-1,-1,-1],"split_conditions":[2.8E-1,6.3E-2,5.58E-1,1E0,1E0,4.25E-1,6.77E-1,1E0,5E-3,2E-1,1.29E-1,3.83E-1,4.69E-1,5.95E-1,7.62E-1,-5.488919E-3,-1.9422036E-3,-5.3522023E-3,-4.206627E-3,-4.083959E-3,7.752494E-4,1.9404881E-3,5.5352286E-3,4.202769E-3,5.954283E-3,7.6451595E-3,9.2827035E-3,1.1047314E-2,1.2902348E-2,1.51492525E-2,1.7648635E-2],"split_indices":[0,0,0,1,2,0,0,2,0,0,0,0,0,0,0,0,0,0,0,0,0,0,0,0,0,0,0,0,0,0,0],"split_type":[0,0,0,0,0,0,0,0,0,0,0,0,0,0,0,0,0,0,0,0,0,0,0,0,0,0,0,0,0,0,0],"sum_hessian":[5.274E3,3.665E3,1.609E3,2.901E3,7.64E2,1.033E3,5.76E2,2.3E2,2.671E3,4.87E2,2.77E2,5.33E2,5E2,3.51E2,2.25E2,7.3E1,1.57E2,2.464E3,2.07E2,2.76E2,2.11E2,1.61E2,1.16E2,3.51E2,1.82E2,1.79E2,3.21E2,1.48E2,2.03E2,1.59E2,6.6E1],"tree_param":{"num_deleted":"0","num_feature":"3","num_nodes":"31","size_leaf_vector":"1"}},{"base_weights":[1.3054717E-4,-7.999209E-2,1.6765109E-1,-9.678149E-2,-6.933966E-3,1.0646742E-1,2.3971654E-1,-5.8681153E-2,-1.00039124E-1,-5.3243876E-2,6.2383976E-2,7.513657E-2,1.415869E-1,1.9834471E-1,2.8132358E-1,-5.2181818E-3,-1.8457081E-3,-5.068542E-3,-3.752105E-3,-4.5233704E-3,-6.329291E-4,1.5893647E-3,4.7309506E-3,3.6015168E-3,7.875437E-3,5.8410554E-3,7.6472084E-3,9.139232E-3,1.07126525E-2,1.2688694E-2,1.5539928E-2],"categories":[],"categories_nodes":[],"categories_segments":[],"categories_sizes":[],"default_left":[0,0,0,0,0,0,0,0,0,0,0,0,0,0,0,0,0,0,0,0,0,0,0,0,0,0,0,0,0,0,0],"id":11,"left_children":[1,3,5,7,9,11,13,15,17,19,21,23,25,27,29,-1,-1,-1,-1,-1,-1,-1,-1,-1,-1,-1,-1,-1,-1,-1,-1],"loss_changes":[7.081545E1,4.377075E0,7.501034E0,3.543148E-1,2.1476736E0,1.0071611E0,1.2920265E0,2.2584707E-1,8.134079E-2,6.046568E-1,2.613169E-1,1.1428547E-1,1.0448551E-1,5.886078E-2,2.361908E-1,0E0,0E0,0E0,0E0,0E0,0E0,0E0,0E0,0E0,0E0,0E0,0E0,0E0,0E0,0E0,0E0],"parents":[2147483647,0,0,1,1,2,2,3,3,4,4,5,5,6,6,7,7,8,8,9,9,10,10,11,11,12,12,13,13,14,14],"right_children":[2,4,6,8,10,12,14,16,18,20,22,24,26,28,30,-1,-1,-1,-1,-1,-1,-1,-1,-1,-1,-1,-1,-1,-1,-1,-1],"split_conditions":[2.55E-1,6.3E-2,5.03E-1,1E0,1E0,3.9E-1,6.08E-1,1E0,1.3E-2,1.52E-1,1.23E-1,1E0,4.25E-1,5.58E-1,6.92E-1,-5.2181818E-3,-1.8457081E-3,-5.068542E-3,-3.752105E-3,-4.5233704E-3,-6.329291E-4,1.5893647E-3,4.7309506E-3,3.6015168E-3,7.875437E-3,5.8410554E-3,7.6472084E-3,9.139232E-3,1.07126525E-2,1.2688694E-2,1.5539928E-2],"split_indices":[0,0,0,1,2,0,0,2,0,0,0,2,0,0,0,0,0,0,0,0,0,0,0,0,0,0,0,0,0,0,0],"split_type":[0,0,0,0,0,0,0,0,0,0,0,0,0,0,0,0,0,0,0,0,0,0,0,0,0,0,0,0,0,0,0],"sum_hessian":[5.274E3,3.568E3,1.706E3,2.901E3,6.67E2,9.24E2,7.82E2,2.3E2,2.671E3,4E2,2.67E2,4.9E2,4.34E2,3.95E2,3.87E2,7.3E1,1.57E2,2.533E3,1.38E2,2.08E2,1.92E2,1.38E2,1.29E2,4.74E2,1.6E1,1.4E2,2.94E2,2.06E2,1.89E2,2.05E2,1.82E2],"tree_param":{"num_deleted":"0","num_feature":"3","num_nodes":"31","size_leaf_vector":"1"}},{"base_weights":[1.3507545E-4,-7.285365E-2,1.6633168E-1,-9.194789E-2,-3.250965E-4,1.2126355E-1,2.4680676E-1,-5.577768E-2,-9.504047E-2,-3.6117684E-2,6.250623E-2,8.719575E-2,1.573333E-1,2.1939811E-1,2.8840423E-1,-4.9607987E-3,-1.7540072E-3,-4.831377E-3,-3.788768E-3,-3.7028992E-3,6.812808E-4,1.7427838E-3,5.0128684E-3,3.8100206E-3,5.393438E-3,6.884788E-3,8.39111E-3,9.966618E-3,1.1648926E-2,1.3662698E-2,1.6013974E-2],"categories":[],"categories_nodes":[],"categories_segments":[],"categories_sizes":[],"default_left":[0,0,0,0,0,0,0,0,0,0,0,0,0,0,0,0,0,0,0,0,0,0,0,0,0,0,0,0,0,0,0],"id":12,"left_children":[1,3,5,7,9,11,13,15,17,19,21,23,25,27,29,-1,-1,-1,-1,-1,-1,-1,-1,-1,-1,-1,-1,-1,-1,-1,-1],"loss_changes":[6.400039E1,5.076931E0,5.8093147E0,3.1931496E-1,1.7226629E0,1.256877E0,5.945816E-1,2.0420367E-1,7.4373245E-2,9.2199945E-1,2.8669286E-1,1.13162994E-1,8.008671E-2,4.948044E-2,2.1623611E-2,0E0,0E0,0E0,0E0,0E0,0E0,0E0,0E0,0E0,0E0,0E0,0E0,0E0,0E0,0E0,0E0],"parents":[2147483647,0,0,1,1,2,2,3,3,4,4,5,5,6,6,7,7,8,8,9,9,10,10,11,11,12,12,13,13,14,14],"right_children":[2,4,6,8,10,12,14,16,18,20,22,24,26,28,30,-1,-1,-1,-1,-1,-1,-1,-1,-1,-1,-1,-1,-1,-1,-1,-1],"split_conditions":[2.8E-1,6.3E-2,5.58E-1,1E0,1E0,4.25E-1,6.77E-1,1E0,5E-3,2E-1,1.29E-1,3.83E-1,4.69E-1,5.95E-1,7.62E-1,-4.9607987E-3,-1.7540072E-3,-4.831377E-3,-3.788768E-3,-3.7028992E-3,6.812808E-4,1.7427838E-3,5.0128684E-3,3.8100206E-3,5.393438E-3,6.884788E-3,8.39111E-3,9.966618E-3,1.1648926E-2,1.3662698E-2,1.6013974E-2],"split_indices":[0,0,0,1,2,0,0,2,0,0,0,0,0,0,0,0,0,0,0,0,0,0,0,0,0,0,0,0,0,0,0],"split_type":[0,0,0,0,0,0,0,0,0,0,0,0,0,0,0,0,0,0,0,0,0,0,0,0,0,0,0,0,0,0,0],"sum_hessian":[5.274E3,3.665E3,1.609E3,2.901E3,7.64E2,1.033E3,5.76E2,2.3E2,2.671E3,4.87E2,2.77E2,5.33E2,5E2,3.51E2,2.25E2,7.3E1,1.57E2,2.464E3,2.07E2,2.76E2,2.11E2,1.61E2,1.16E2,3.51E2,1.82E2,1.79E2,3.21E2,1.48E2,2.03E2,1.59E2,6.6E1],"tree_param":{"num_deleted":"0","num_feature":"3","num_nodes":"31","size_leaf_vector":"1"}},{"base_weights":[1.4048541E-4,-6.9214135E-2,1.5806216E-1,-8.676089E-2,2.0848848E-3,1.1522405E-1,2.345553E-1,-5.13414E-2,-9.027703E-2,-3.1620704E-2,6.2851004E-2,8.285319E-2,1.4949712E-1,2.0848963E-1,2.7411532E-1,-4.743724E-3,-1.4211986E-3,-4.580191E-3,-3.4702066E-3,-3.6252942E-3,4.3527462E-4,1.7936332E-3,4.7643674E-3,3.6200606E-3,5.1252395E-3,6.5424615E-3,7.972857E-3,9.471632E-3,1.1069334E-2,1.2983832E-2,1.5225226E-2],"categories":[],"categories_nodes":[],"categories_segments":[],"categories_sizes":[],"default_left":[0,0,0,0,0,0,0,0,0,0,0,0,0,0,0,0,0,0,0,0,0,0,0,0,0,0,0,0,0,0,0],"id":13,"left_children":[1,3,5,7,9,11,13,15,17,19,21,23,25,27,29,-1,-1,-1,-1,-1,-1,-1,-1,-1,-1,-1,-1,-1,-1,-1,-1],"loss_changes":[5.7785892E1,4.5865917E0,5.248657E0,3.617611E-1,1.4869018E0,1.1347837E0,5.3783035E-1,2.6467788E-1,6.772423E-2,7.705946E-1,2.2322726E-1,1.0226107E-1,7.218742E-2,4.457569E-2,2.009201E-2,0E0,0E0,0E0,0E0,0E0,0E0,0E0,0E0,0E0,0E0,0E0,0E0,0E0,0E0,0E0,0E0],"parents":[2147483647,0,0,1,1,2,2,3,3,4,4,5,5,6,6,7,7,8,8,9,9,10,10,11,11,12,12,13,13,14,14],"right_children":[2,4,6,8,10,12,14,16,18,20,22,24,26,28,30,-1,-1,-1,-1,-1,-1,-1,-1,-1,-1,-1,-1,-1,-1,-1,-1],"split_conditions":[2.8E-1,8.1E-2,5.58E-1,1E0,1E0,4.25E-1,6.77E-1,1E0,1.1E-2,1.89E-1,1.29E-1,3.83E-1,4.69E-1,5.95E-1,7.62E-1,-4.743724E-3,-1.4211986E-3,-4.580191E-3,-3.4702066E-3,-3.6252942E-3,4.3527462E-4,1.7936332E-3,4.7643674E-3,3.6200606E-3,5.1252395E-3,6.5424615E-3,7.972857E-3,9.471632E-3,1.1069334E-2,1.2983832E-2,1.5225226E-2],"split_indices":[0,0,0,1,2,0,0,2,0,0,0,0,0,0,0,0,0,0,0,0,0,0,0,0,0,0,0,0,0,0,0],"split_type":[0,0,0,0,0,0,0,0,0,0,0,0,0,0,0,0,0,0,0,0,0,0,0,0,0,0,0,0,0,0,0],"sum_hessian":[5.274E3,3.665E3,1.609E3,2.941E3,7.24E2,1.033E3,5.76E2,2.67E2,2.674E3,4.66E2,2.58E2,5.33E2,5E2,3.51E2,2.25E2,9.1E1,1.76E2,2.511E3,1.63E2,2.31E2,2.35E2,1.42E2,1.16E2,3.51E2,1.82E2,1.79E2,3.21E2,1.48E2,2.03E2,1.59E2,6.6E1],"tree_param":{"num_deleted":"0","num_feature":"3","num_nodes":"31","size_leaf_vector":"1"}},{"base_weights":[1.450566E-4,-6.8957694E-2,1.4338125E-1,-1.6728112E-2,-8.567038E-2,9.089049E-2,2.0587867E-1,-5.3556204E-2,2.1616032E-2,-4.360989E-3,-6.8838716E-2,6.430396E-2,1.213019E-1,1.7818011E-1,2.5235182E-1,-4.160593E-3,-6.787532E-4,-6.855374E-4,3.597967E-3,-4.5967666E-3,-1.102953E-3,3.065262E-3,7.068183E-3,5.028871E-3,6.539815E-3,8.1603E-3,9.933342E-3,1.1503258E-2,1.3713566E-2],"categories":[],"categories_nodes":[],"categories_segments":[],"categories_sizes":[],"default_left":[0,0,0,0,0,0,0,0,0,0,0,0,0,0,0,0,0,0,0,0,0,0,0,0,0,0,0,0,0],"id":14,"left_children":[1,3,5,7,9,11,13,15,17,-1,19,21,23,25,27,-1,-1,-1,-1,-1,-1,-1,-1,-1,-1,-1,-1,-1,-1],"loss_changes":[5.222192E1,3.1052055E0,5.613968E0,1.2212481E0,6.430626E-2,7.4817944E-1,9.6294785E-1,5.217494E-1,7.550566E-1,0E0,2.4863672E-1,1.0710478E-1,7.243824E-2,1.191206E-1,7.856941E-2,0E0,0E0,0E0,0E0,0E0,0E0,0E0,0E0,0E0,0E0,0E0,0E0,0E0,0E0],"parents":[2147483647,0,0,1,1,2,2,3,3,4,4,5,5,6,6,7,7,8,8,10,10,11,11,12,12,13,13,14,14],"right_children":[2,4,6,8,10,12,14,16,18,-1,20,22,24,26,28,-1,-1,-1,-1,-1,-1,-1,-1,-1,-1,-1,-1,-1,-1],"split_conditions":[2.52E-1,1E0,5.03E-1,1E0,5E-3,3.9E-1,6.53E-1,1.44E-1,1.12E-1,-4.360989E-3,1E0,1E0,4.25E-1,5.8E-1,7.13E-1,-4.160593E-3,-6.787532E-4,-6.855374E-4,3.597967E-3,-4.5967666E-3,-1.102953E-3,3.065262E-3,7.068183E-3,5.028871E-3,6.539815E-3,8.1603E-3,9.933342E-3,1.1503258E-2,1.3713566E-2],"split_indices":[0,1,0,2,0,0,0,0,0,0,2,2,0,0,0,0,0,0,0,0,0,0,0,0,0,0,0,0,0],"split_type":[0,0,0,0,0,0,0,0,0,0,0,0,0,0,0,0,0,0,0,0,0,0,0,0,0,0,0,0,0],"sum_hessian":[5.274E3,3.558E3,1.716E3,8.63E2,2.695E3,9.34E2,7.82E2,4.4E2,4.23E2,2.464E3,2.31E2,5E2,4.34E2,4.93E2,2.89E2,2.52E2,1.88E2,2.49E2,1.74E2,1.54E2,7.7E1,4.83E2,1.7E1,1.4E2,2.94E2,2.9E2,2.03E2,1.49E2,1.4E2],"tree_param":{"num_deleted":"0","num_feature":"3","num_nodes":"29","size_leaf_vector":"1"}},{"base_weights":[1.4785521E-4,-6.251388E-2,1.428297E-1,-7.8925446E-2,-1.7550173E-4,9.573951E-2,1.996071E-1,-4.8772097E-2,-8.150272E-2,-3.1204553E-2,5.429339E-2,7.215541E-2,1.235922E-1,1.7337494E-1,2.4105304E-1,-4.2769113E-3,-1.5621916E-3,-4.1298866E-3,-3.0477056E-3,-3.7235492E-3,6.010951E-5,1.5287496E-3,4.3335105E-3,3.058605E-3,4.162592E-3,5.651452E-3,6.783671E-3,8.021022E-3,9.659491E-3,1.1045081E-2,1.31143555E-2],"categories":[],"categories_nodes":[],"categories_segments":[],"categories_sizes":[],"default_left":[0,0,0,0,0,0,0,0,0,0,0,0,0,0,0,0,0,0,0,0,0,0,0,0,0,0,0,0,0,0,0],"id":15,"left_children":[1,3,5,7,9,11,13,15,17,19,21,23,25,27,29,-1,-1,-1,-1,-1,-1,-1,-1,-1,-1,-1,-1,-1,-1,-1,-1],"loss_changes":[4.7171085E1,3.7505617E0,4.2854805E0,2.2154999E-1,1.2946345E0,5.704508E-1,7.5078964E-1,1.4619452E-1,5.5088043E-2,6.843261E-1,2.1083349E-1,5.340743E-2,3.609419E-2,8.451939E-2,6.1870575E-2,0E0,0E0,0E0,0E0,0E0,0E0,0E0,0E0,0E0,0E0,0E0,0E0,0E0,0E0,0E0,0E0],"parents":[2147483647,0,0,1,1,2,2,3,3,4,4,5,5,6,6,7,7,8,8,9,9,10,10,11,11,12,12,13,13,14,14],"right_children":[2,4,6,8,10,12,14,16,18,20,22,24,26,28,30,-1,-1,-1,-1,-1,-1,-1,-1,-1,-1,-1,-1,-1,-1,-1,-1],"split_conditions":[2.8E-1,6.3E-2,5.19E-1,1E0,1E0,4.1E-1,6.58E-1,1E0,1.3E-2,1.52E-1,1.29E-1,3.54E-1,4.66E-1,5.88E-1,7.23E-1,-4.2769113E-3,-1.5621916E-3,-4.1298866E-3,-3.0477056E-3,-3.7235492E-3,6.010951E-5,1.5287496E-3,4.3335105E-3,3.058605E-3,4.162592E-3,5.651452E-3,6.783671E-3,8.021022E-3,9.659491E-3,1.1045081E-2,1.31143555E-2],"split_indices":[0,0,0,1,2,0,0,2,0,0,0,0,0,0,0,0,0,0,0,0,0,0,0,0,0,0,0,0,0,0,0],"split_type":[0,0,0,0,0,0,0,0,0,0,0,0,0,0,0,0,0,0,0,0,0,0,0,0,0,0,0,0,0,0,0],"sum_hessian":[5.274E3,3.665E3,1.609E3,2.901E3,7.64E2,8.81E2,7.28E2,2.3E2,2.671E3,4.87E2,2.77E2,4.79E2,4.02E2,4.49E2,2.79E2,7.3E1,1.57E2,2.533E3,1.38E2,2.08E2,2.79E2,1.61E2,1.16E2,2.44E2,2.35E2,2.2E2,1.82E2,2.77E2,1.72E2,1.49E2,1.3E2],"tree_param":{"num_deleted":"0","num_feature":"3","num_nodes":"31","size_leaf_vector":"1"}},{"base_weights":[1.500703E-4,-6.2281538E-2,1.2955831E-1,-7.498366E-2,-6.166289E-3,8.510806E-2,1.8968414E-1,-4.6358768E-2,-7.743028E-2,-4.3374103E-2,4.848401E-2,5.8274724E-2,1.1242584E-1,1.6474548E-1,2.2908668E-1,-4.0659555E-3,-1.4845765E-3,-3.9366176E-3,-3.081357E-3,-3.5382626E-3,-6.0128036E-4,1.1521986E-3,3.6048964E-3,2.7724453E-3,6.5510175E-3,4.7814064E-3,6.18114E-3,7.6214145E-3,9.179308E-3,1.0496509E-2,1.2463643E-2],"categories":[],"categories_nodes":[],"categories_segments":[],"categories_sizes":[],"default_left":[0,0,0,0,0,0,0,0,0,0,0,0,0,0,0,0,0,0,0,0,0,0,0,0,0,0,0,0,0,0,0],"id":16,"left_children":[1,3,5,7,9,11,13,15,17,19,21,23,25,27,29,-1,-1,-1,-1,-1,-1,-1,-1,-1,-1,-1,-1,-1,-1,-1,-1],"loss_changes":[4.262566E1,2.5363312E0,4.5727234E0,1.996479E-1,1.3400922E0,7.184129E-1,6.7860985E-1,1.321874E-1,5.0130844E-2,3.3574814E-1,1.5873593E-1,9.572363E-2,8.0150604E-2,7.644558E-2,5.594635E-2,0E0,0E0,0E0,0E0,0E0,0E0,0E0,0E0,0E0,0E0,0E0,0E0,0E0,0E0,0E0,0E0],"parents":[2147483647,0,0,1,1,2,2,3,3,4,4,5,5,6,6,7,7,8,8,9,9,10,10,11,11,12,12,13,13,14,14],"right_children":[2,4,6,8,10,12,14,16,18,20,22,24,26,28,30,-1,-1,-1,-1,-1,-1,-1,-1,-1,-1,-1,-1,-1,-1,-1,-1],"split_conditions":[2.52E-1,6.3E-2,5.19E-1,1E0,1E0,3.9E-1,6.58E-1,1E0,5E-3,1.52E-1,1.22E-1,1E0,4.39E-1,5.88E-1,7.23E-1,-4.0659555E-3,-1.4845765E-3,-3.9366176E-3,-3.081357E-3,-3.5382626E-3,-6.0128036E-4,1.1521986E-3,3.6048964E-3,2.7724453E-3,6.5510175E-3,4.7814064E-3,6.18114E-3,7.6214145E-3,9.179308E-3,1.0496509E-2,1.2463643E-2],"split_indices":[0,0,0,1,2,0,0,2,0,0,0,2,0,0,0,0,0,0,0,0,0,0,0,0,0,0,0,0,0,0,0],"split_type":[0,0,0,0,0,0,0,0,0,0,0,0,0,0,0,0,0,0,0,0,0,0,0,0,0,0,0,0,0,0,0],"sum_hessian":[5.274E3,3.558E3,1.716E3,2.901E3,6.57E2,9.88E2,7.28E2,2.3E2,2.671E3,3.91E2,2.66E2,5E2,4.88E2,4.49E2,2.79E2,7.3E1,1.57E2,2.464E3,2.07E2,2.08E2,1.83E2,1.29E2,1.37E2,4.83E2,1.7E1,1.99E2,2.89E2,2.77E2,1.72E2,1.49E2,1.3E2],"tree_param":{"num_deleted":"0","num_feature":"3","num_nodes":"31","size_leaf_vector":"1"}},{"base_weights":[1.5168532E-4,-5.646347E-2,1.2906535E-1,-7.024528E-2,3.9399983E-3,9.404372E-2,1.9160141E-1,-4.1491646E-2,-7.3538005E-2,-2.3655754E-2,5.5520542E-2,6.79703E-2,1.21646844E-1,1.7343612E-1,1.14881825E-2,-3.9192094E-3,-1.0206793E-3,-3.727885E-3,-2.7541767E-3,-2.7252021E-3,5.252679E-4,2.1044656E-3,4.972233E-3,2.9726084E-3,4.1991738E-3,5.276924E-3,6.465693E-3,7.890955E-3,9.349912E-3],"categories":[],"categories_nodes":[],"categories_segments":[],"categories_sizes":[],"default_left":[0,0,0,0,0,0,0,0,0,0,0,0,0,0,0,0,0,0,0,0,0,0,0,0,0,0,0,0,0],"id":17,"left_children":[1,3,5,7,9,11,13,15,17,19,21,23,25,27,-1,-1,-1,-1,-1,-1,-1,-1,-1,-1,-1,-1,-1,-1,-1],"loss_changes":[3.8506702E1,3.0521078E0,3.508068E0,2.79562E-1,9.720748E-1,7.3590946E-1,3.6014366E-1,2.3868549E-1,4.6268463E-2,4.6951884E-1,1.3622373E-1,6.784582E-2,4.822731E-2,5.4148674E-2,0E0,0E0,0E0,0E0,0E0,0E0,0E0,0E0,0E0,0E0,0E0,0E0,0E0,0E0,0E0],"parents":[2147483647,0,0,1,1,2,2,3,3,4,4,5,5,6,6,7,7,8,8,9,9,10,10,11,11,12,12,13,13],"right_children":[2,4,6,8,10,12,14,16,18,20,22,24,26,28,-1,-1,-1,-1,-1,-1,-1,-1,-1,-1,-1,-1,-1,-1,-1],"split_conditions":[2.8E-1,9.2E-2,5.58E-1,1E0,1E0,4.25E-1,6.92E-1,1E0,1.3E-2,2E-1,2E-1,3.83E-1,4.66E-1,6.08E-1,1.14881825E-2,-3.9192094E-3,-1.0206793E-3,-3.727885E-3,-2.7541767E-3,-2.7252021E-3,5.252679E-4,2.1044656E-3,4.972233E-3,2.9726084E-3,4.1991738E-3,5.276924E-3,6.465693E-3,7.890955E-3,9.349912E-3],"split_indices":[0,0,0,1,2,0,0,2,0,0,0,0,0,0,0,0,0,0,0,0,0,0,0,0,0,0,0,0,0],"split_type":[0,0,0,0,0,0,0,0,0,0,0,0,0,0,0,0,0,0,0,0,0,0,0,0,0,0,0,0,0],"sum_hessian":[5.274E3,3.665E3,1.609E3,2.984E3,6.81E2,1.033E3,5.76E2,3.08E2,2.676E3,4.44E2,2.37E2,5.33E2,5E2,3.94E2,1.82E2,1.11E2,1.97E2,2.533E3,1.43E2,2.33E2,2.11E2,1.83E2,5.4E1,3.51E2,1.82E2,1.66E2,3.34E2,1.89E2,2.05E2],"tree_param":{"num_deleted":"0","num_feature":"3","num_nodes":"29","size_leaf_vector":"1"}},{"base_weights":[1.5189126E-4,-5.6235068E-2,1.1703077E-1,-6.7700155E-2,-5.5847373E-3,7.421897E-2,1.6800395E-1,-4.2132612E-2,-6.988519E-2,-3.9335176E-2,4.3987386E-2,5.2735142E-2,9.879181E-2,1.3954476E-1,1.9812678E-1,-3.672093E-3,-1.3601063E-3,-3.5535481E-3,-2.7748328E-3,-3.2156985E-3,-5.3743756E-4,1.0386971E-3,3.2768187E-3,2.5047353E-3,6.0401913E-3,4.0982035E-3,5.3250003E-3,6.3990466E-3,7.5407797E-3,9.094216E-3,1.1206899E-2],"categories":[],"categories_nodes":[],"categories_segments":[],"categories_sizes":[],"default_left":[0,0,0,0,0,0,0,0,0,0,0,0,0,0,0,0,0,0,0,0,0,0,0,0,0,0,0,0,0,0,0],"id":18,"left_children":[1,3,5,7,9,11,13,15,17,19,21,23,25,27,29,-1,-1,-1,-1,-1,-1,-1,-1,-1,-1,-1,-1,-1,-1,-1,-1],"loss_changes":[3.477118E1,2.066369E0,3.7344608E0,1.5917873E-1,1.1026175E0,4.8839378E-1,6.4359474E-1,1.0598597E-1,4.1643143E-2,2.7921802E-1,1.3219899E-1,8.399367E-2,4.7695637E-2,3.361416E-2,1.1893177E-1,0E0,0E0,0E0,0E0,0E0,0E0,0E0,0E0,0E0,0E0,0E0,0E0,0E0,0E0,0E0,0E0],"parents":[2147483647,0,0,1,1,2,2,3,3,4,4,5,5,6,6,7,7,8,8,9,9,10,10,11,11,12,12,13,13,14,14],"right_children":[2,4,6,8,10,12,14,16,18,20,22,24,26,28,30,-1,-1,-1,-1,-1,-1,-1,-1,-1,-1,-1,-1,-1,-1,-1,-1],"split_conditions":[2.52E-1,6.3E-2,5.03E-1,1E0,1E0,3.9E-1,6.11E-1,1E0,5E-3,1.52E-1,1.22E-1,1E0,4.25E-1,5.58E-1,7.13E-1,-3.672093E-3,-1.3601063E-3,-3.5535481E-3,-2.7748328E-3,-3.2156985E-3,-5.3743756E-4,1.0386971E-3,3.2768187E-3,2.5047353E-3,6.0401913E-3,4.0982035E-3,5.3250003E-3,6.3990466E-3,7.5407797E-3,9.094216E-3,1.1206899E-2],"split_indices":[0,0,0,1,2,0,0,2,0,0,0,2,0,0,0,0,0,0,0,0,0,0,0,0,0,0,0,0,0,0,0],"split_type":[0,0,0,0,0,0,0,0,0,0,0,0,0,0,0,0,0,0,0,0,0,0,0,0,0,0,0,0,0,0,0],"sum_hessian":[5.274E3,3.558E3,1.716E3,2.901E3,6.57E2,9.34E2,7.82E2,2.3E2,2.671E3,3.91E2,2.66E2,5E2,4.34E2,4.05E2,3.77E2,7.3E1,1.57E2,2.464E3,2.07E2,2.08E2,1.83E2,1.29E2,1.37E2,4.83E2,1.7E1,1.4E2,2.94E2,2.06E2,1.99E2,2.37E2,1.4E2],"tree_param":{"num_deleted":"0","num_feature":"3","num_nodes":"31","size_leaf_vector":"1"}},{"base_weights":[1.521466E-4,-5.0999057E-2,1.16624296E-1,-6.354063E-2,2.896518E-3,8.504351E-2,1.7301582E-1,-3.79276E-2,-6.637873E-2,-2.225163E-2,4.985547E-2,6.1627682E-2,1.0983195E-1,1.5356106E-1,2.0255148E-1,-3.5655487E-3,-9.7458484E-4,-3.3650175E-3,-2.4791593E-3,-2.4886706E-3,4.5699425E-4,1.880695E-3,4.539646E-3,2.5080119E-3,3.5925575E-3,4.750003E-3,5.8448953E-3,7.123429E-3,8.277444E-3,9.522132E-3,1.14222495E-2],"categories":[],"categories_nodes":[],"categories_segments":[],"categories_sizes":[],"default_left":[0,0,0,0,0,0,0,0,0,0,0,0,0,0,0,0,0,0,0,0,0,0,0,0,0,0,0,0,0,0,0],"id":19,"left_children":[1,3,5,7,9,11,13,15,17,19,21,23,25,27,29,-1,-1,-1,-1,-1,-1,-1,-1,-1,-1,-1,-1,-1,-1,-1,-1],"loss_changes":[3.1432766E1,2.4781637E0,2.852518E0,2.1366882E-1,8.194943E-1,5.9340906E-1,3.0044556E-1,1.8263039E-1,3.8085938E-2,3.909606E-1,1.17860496E-1,5.9000254E-2,4.1400433E-2,2.3221016E-2,2.7355194E-2,0E0,0E0,0E0,0E0,0E0,0E0,0E0,0E0,0E0,0E0,0E0,0E0,0E0,0E0,0E0,0E0],"parents":[2147483647,0,0,1,1,2,2,3,3,4,4,5,5,6,6,7,7,8,8,9,9,10,10,11,11,12,12,13,13,14,14],"right_children":[2,4,6,8,10,12,14,16,18,20,22,24,26,28,30,-1,-1,-1,-1,-1,-1,-1,-1,-1,-1,-1,-1,-1,-1,-1,-1],"split_conditions":[2.8E-1,8.9E-2,5.58E-1,1E0,1E0,4.25E-1,6.77E-1,1E0,1.3E-2,2E-1,2E-1,3.57E-1,4.66E-1,6.08E-1,7.62E-1,-3.5655487E-3,-9.7458484E-4,-3.3650175E-3,-2.4791593E-3,-2.4886706E-3,4.5699425E-4,1.880695E-3,4.539646E-3,2.5080119E-3,3.5925575E-3,4.750003E-3,5.8448953E-3,7.123429E-3,8.277444E-3,9.522132E-3,1.14222495E-2],"split_indices":[0,0,0,1,2,0,0,2,0,0,0,0,0,0,0,0,0,0,0,0,0,0,0,0,0,0,0,0,0,0,0],"split_type":[0,0,0,0,0,0,0,0,0,0,0,0,0,0,0,0,0,0,0,0,0,0,0,0,0,0,0,0,0,0,0],"sum_hessian":[5.274E3,3.665E3,1.609E3,2.973E3,6.92E2,1.033E3,5.76E2,2.98E2,2.675E3,4.51E2,2.41E2,5.33E2,5E2,3.51E2,2.25E2,1.05E2,1.93E2,2.533E3,1.42E2,2.4E2,2.11E2,1.87E2,5.4E1,2.54E2,2.79E2,1.66E2,3.34E2,1.89E2,1.62E2,1.59E2,6.6E1],"tree_param":{"num_deleted":"0","num_feature":"3","num_nodes":"31","size_leaf_vector":"1"}},{"base_weights":[1.53457E-4,-4.845074E-2,1.1082602E-1,-6.02522E-2,3.273324E-3,8.0807485E-2,1.6442801E-1,-3.5769183E-2,-6.305571E-2,-2.051853E-2,4.774434E-2,5.8557726E-2,1.043615E-1,1.4592676E-1,1.9251657E-1,-3.3769745E-3,-8.8087254E-4,-3.20776E-3,-2.5017762E-3,-2.3444395E-3,4.3425264E-4,1.7974683E-3,4.3167914E-3,2.3616483E-3,3.3961635E-3,4.5509115E-3,5.5748182E-3,6.7691314E-3,7.866111E-3,9.049E-3,1.085966E-2],"categories":[],"categories_nodes":[],"categories_segments":[],"categories_sizes":[],"default_left":[0,0,0,0,0,0,0,0,0,0,0,0,0,0,0,0,0,0,0,0,0,0,0,0,0,0,0,0,0,0,0],"id":20,"left_children":[1,3,5,7,9,11,13,15,17,19,21,23,25,27,29,-1,-1,-1,-1,-1,-1,-1,-1,-1,-1,-1,-1,-1,-1,-1,-1],"loss_changes":[2.8380392E1,2.237996E0,2.5772896E0,2.0262909E-1,7.2256833E-1,5.3577757E-1,2.7175808E-1,1.770061E-1,3.5113335E-2,3.4310448E-1,1.0523051E-1,5.3429246E-2,3.7548542E-2,2.099657E-2,2.503109E-2,0E0,0E0,0E0,0E0,0E0,0E0,0E0,0E0,0E0,0E0,0E0,0E0,0E0,0E0,0E0,0E0],"parents":[2147483647,0,0,1,1,2,2,3,3,4,4,5,5,6,6,7,7,8,8,9,9,10,10,11,11,12,12,13,13,14,14],"right_children":[2,4,6,8,10,12,14,16,18,20,22,24,26,28,30,-1,-1,-1,-1,-1,-1,-1,-1,-1,-1,-1,-1,-1,-1,-1,-1],"split_conditions":[2.8E-1,9.2E-2,5.58E-1,1E0,1E0,4.25E-1,6.77E-1,1E0,5E-3,2E-1,2E-1,3.54E-1,4.69E-1,6.08E-1,7.62E-1,-3.3769745E-3,-8.8087254E-4,-3.20776E-3,-2.5017762E-3,-2.3444395E-3,4.3425264E-4,1.7974683E-3,4.3167914E-3,2.3616483E-3,3.3961635E-3,4.5509115E-3,5.5748182E-3,6.7691314E-3,7.866111E-3,9.049E-3,1.085966E-2],"split_indices":[0,0,0,1,2,0,0,2,0,0,0,0,0,0,0,0,0,0,0,0,0,0,0,0,0,0,0,0,0,0,0],"split_type":[0,0,0,0,0,0,0,0,0,0,0,0,0,0,0,0,0,0,0,0,0,0,0,0,0,0,0,0,0,0,0],"sum_hessian":[5.274E3,3.665E3,1.609E3,2.984E3,6.81E2,1.033E3,5.76E2,3.08E2,2.676E3,4.44E2,2.37E2,5.33E2,5E2,3.51E2,2.25E2,1.11E2,1.97E2,2.464E3,2.12E2,2.33E2,2.11E2,1.83E2,5.4E1,2.44E2,2.89E2,1.79E2,3.21E2,1.89E2,1.62E2,1.59E2,6.6E1],"tree_param":{"num_deleted":"0","num_feature":"3","num_nodes":"31","size_leaf_vector":"1"}},{"base_weights":[1.5425067E-4,-4.8256256E-2,1.00499526E-1,-5.829845E-2,-5.6536403E-3,6.5957196E-2,1.4722362E-1,-3.724473E-2,-5.9923425E-2,-3.5112046E-2,3.812455E-2,4.6213247E-2,8.792749E-2,1.2776007E-1,1.7797855E-1,-3.1487364E-3,-1.3472316E-3,-3.0374695E-3,-2.2217405E-3,-3.14687E-3,-7.341883E-4,1.039097E-3,2.962306E-3,2.1960852E-3,5.4031867E-3,3.7630522E-3,4.7699437E-3,5.824425E-3,6.9823028E-3,8.410932E-3,1.0324781E-2],"categories":[],"categories_nodes":[],"categories_segments":[],"categories_sizes":[],"default_left":[0,0,0,0,0,0,0,0,0,0,0,0,0,0,0,0,0,0,0,0,0,0,0,0,0,0,0,0,0,0,0],"id":21,"left_children":[1,3,5,7,9,11,13,15,17,19,21,23,25,27,29,-1,-1,-1,-1,-1,-1,-1,-1,-1,-1,-1,-1,-1,-1,-1,-1],"loss_changes":[2.5629564E1,1.522295E0,2.7614574E0,9.629822E-2,8.7829095E-1,4.2494535E-1,4.1364098E-1,5.369267E-2,3.148365E-2,2.3042446E-1,9.9135816E-2,6.9380164E-2,3.70152E-2,4.402113E-2,4.319477E-2,0E0,0E0,0E0,0E0,0E0,0E0,0E0,0E0,0E0,0E0,0E0,0E0,0E0,0E0,0E0,0E0],"parents":[2147483647,0,0,1,1,2,2,3,3,4,4,5,5,6,6,7,7,8,8,9,9,10,10,11,11,12,12,13,13,14,14],"right_children":[2,4,6,8,10,12,14,16,18,20,22,24,26,28,30,-1,-1,-1,-1,-1,-1,-1,-1,-1,-1,-1,-1,-1,-1,-1,-1],"split_conditions":[2.52E-1,5.4E-2,5.19E-1,1E0,1E0,3.95E-1,6.58E-1,1E0,1.3E-2,1.34E-1,1.25E-1,1E0,4.39E-1,5.8E-1,7.62E-1,-3.1487364E-3,-1.3472316E-3,-3.0374695E-3,-2.2217405E-3,-3.14687E-3,-7.341883E-4,1.039097E-3,2.962306E-3,2.1960852E-3,5.4031867E-3,3.7630522E-3,4.7699437E-3,5.824425E-3,6.9823028E-3,8.410932E-3,1.0324781E-2],"split_indices":[0,0,0,1,2,0,0,2,0,0,0,2,0,0,0,0,0,0,0,0,0,0,0,0,0,0,0,0,0,0,0],"split_type":[0,0,0,0,0,0,0,0,0,0,0,0,0,0,0,0,0,0,0,0,0,0,0,0,0,0,0,0,0,0,0],"sum_hessian":[5.274E3,3.558E3,1.716E3,2.879E3,6.79E2,9.88E2,7.28E2,2.08E2,2.671E3,4.06E2,2.73E2,5.22E2,4.66E2,4.49E2,2.79E2,5.8E1,1.5E2,2.533E3,1.38E2,1.71E2,2.35E2,1.51E2,1.22E2,5.05E2,1.7E1,1.77E2,2.89E2,2.36E2,2.13E2,2.13E2,6.6E1],"tree_param":{"num_deleted":"0","num_feature":"3","num_nodes":"31","size_leaf_vector":"1"}},{"base_weights":[1.5375006E-4,-4.3763734E-2,1.00154586E-1,-5.5183727E-2,-3.8520704E-4,7.304891E-2,1.4855513E-1,-3.4754477E-2,-5.6929223E-2,-2.2548562E-2,3.8521636E-2,5.3066365E-2,9.420186E-2,1.3416027E-1,1.7881425E-1,-2.9932435E-3,-1.1386974E-3,-2.8956255E-3,-2.2501322E-3,-2.6707973E-3,2.8613096E-5,1.0518874E-3,3.1200428E-3,1.983077E-3,2.9942298E-3,4.324853E-3,5.2363533E-3,6.110774E-3,7.2263028E-3,8.362921E-3,9.816247E-3],"categories":[],"categories_nodes":[],"categories_segments":[],"categories_sizes":[],"default_left":[0,0,0,0,0,0,0,0,0,0,0,0,0,0,0,0,0,0,0,0,0,0,0,0,0,0,0,0,0,0,0],"id":22,"left_children":[1,3,5,7,9,11,13,15,17,19,21,23,25,27,29,-1,-1,-1,-1,-1,-1,-1,-1,-1,-1,-1,-1,-1,-1,-1,-1],"loss_changes":[2.3171053E1,1.816051E0,2.1013527E0,1.0150337E-1,6.605329E-1,4.3206263E-1,2.2733784E-1,6.812972E-2,2.8728485E-2,3.4830606E-1,1.1475265E-1,4.6430945E-2,3.156948E-2,3.1244755E-2,4.192829E-3,0E0,0E0,0E0,0E0,0E0,0E0,0E0,0E0,0E0,0E0,0E0,0E0,0E0,0E0,0E0,0E0],"parents":[2147483647,0,0,1,1,2,2,3,3,4,4,5,5,6,6,7,7,8,8,9,9,10,10,11,11,12,12,13,13,14,14],"right_children":[2,4,6,8,10,12,14,16,18,20,22,24,26,28,30,-1,-1,-1,-1,-1,-1,-1,-1,-1,-1,-1,-1,-1,-1,-1,-1],"split_conditions":[2.8E-1,6.3E-2,5.58E-1,1E0,1E0,4.25E-1,6.92E-1,1E0,5E-3,1.52E-1,1.29E-1,3.34E-1,5.03E-1,6.08E-1,7.62E-1,-2.9932435E-3,-1.1386974E-3,-2.8956255E-3,-2.2501322E-3,-2.6707973E-3,2.8613096E-5,1.0518874E-3,3.1200428E-3,1.983077E-3,2.9942298E-3,4.324853E-3,5.2363533E-3,6.110774E-3,7.2263028E-3,8.362921E-3,9.816247E-3],"split_indices":[0,0,0,1,2,0,0,2,0,0,0,0,0,0,0,0,0,0,0,0,0,0,0,0,0,0,0,0,0,0,0],"split_type":[0,0,0,0,0,0,0,0,0,0,0,0,0,0,0,0,0,0,0,0,0,0,0,0,0,0,0,0,0,0,0],"sum_hessian":[5.274E3,3.665E3,1.609E3,2.901E3,7.64E2,1.033E3,5.76E2,2.3E2,2.671E3,4.87E2,2.77E2,5.33E2,5E2,3.94E2,1.82E2,7.3E1,1.57E2,2.464E3,2.07E2,2.08E2,2.79E2,1.61E2,1.16E2,1.82E2,3.51E2,2.94E2,2.06E2,1.89E2,2.05E2,1.16E2,6.6E1],"tree_param":{"num_deleted":"0","num_feature":"3","num_nodes":"31","size_leaf_vector":"1"}},{"base_weights":[1.5332467E-4,-4.2367168E-2,9.343063E-2,-5.262823E-2,-2.6433677E-3,6.21281E-2,1.3297811E-1,-3.3756096E-2,-5.408469E-2,-2.6086228E-2,3.5938654E-2,4.6592537E-2,8.209693E-2,1.15330964E-1,1.6086467E-1,-2.8468424E-3,-1.2237582E-3,-2.7418106E-3,-1.9997552E-3,-2.5581755E-3,-1.3348204E-4,8.425421E-4,2.6801832E-3,1.4421605E-3,2.5824453E-3,3.753366E-3,4.506881E-3,5.3393063E-3,6.419766E-3,7.601917E-3,9.332761E-3],"categories":[],"categories_nodes":[],"categories_segments":[],"categories_sizes":[],"default_left":[0,0,0,0,0,0,0,0,0,0,0,0,0,0,0,0,0,0,0,0,0,0,0,0,0,0,0,0,0,0,0],"id":23,"left_children":[1,3,5,7,9,11,13,15,17,19,21,23,25,27,29,-1,-1,-1,-1,-1,-1,-1,-1,-1,-1,-1,-1,-1,-1,-1,-1],"loss_changes":[2.0925648E1,1.4770341E0,2.036809E0,7.733536E-2,6.747698E-1,2.82825E-1,3.4020042E-1,4.357049E-2,2.6099682E-2,2.723355E-1,9.4183326E-2,4.53583E-2,1.6012192E-2,3.6524296E-2,3.5359383E-2,0E0,0E0,0E0,0E0,0E0,0E0,0E0,0E0,0E0,0E0,0E0,0E0,0E0,0E0,0E0,0E0],"parents":[2147483647,0,0,1,1,2,2,3,3,4,4,5,5,6,6,7,7,8,8,9,9,10,10,11,11,12,12,13,13,14,14],"right_children":[2,4,6,8,10,12,14,16,18,20,22,24,26,28,30,-1,-1,-1,-1,-1,-1,-1,-1,-1,-1,-1,-1,-1,-1,-1,-1],"split_conditions":[2.72E-1,5.4E-2,5.19E-1,1E0,1E0,4.1E-1,6.58E-1,1E0,1.3E-2,1.52E-1,1.22E-1,2.99E-1,4.66E-1,5.88E-1,7.62E-1,-2.8468424E-3,-1.2237582E-3,-2.7418106E-3,-1.9997552E-3,-2.5581755E-3,-1.3348204E-4,8.425421E-4,2.6801832E-3,1.4421605E-3,2.5824453E-3,3.753366E-3,4.506881E-3,5.3393063E-3,6.419766E-3,7.601917E-3,9.332761E-3],"split_indices":[0,0,0,1,2,0,0,2,0,0,0,0,0,0,0,0,0,0,0,0,0,0,0,0,0,0,0,0,0,0,0],"split_type":[0,0,0,0,0,0,0,0,0,0,0,0,0,0,0,0,0,0,0,0,0,0,0,0,0,0,0,0,0,0,0],"sum_hessian":[5.274E3,3.623E3,1.651E3,2.879E3,7.44E2,9.23E2,7.28E2,2.08E2,2.671E3,4.63E2,2.81E2,5.21E2,4.02E2,4.49E2,2.79E2,5.8E1,1.5E2,2.533E3,1.38E2,2.23E2,2.4E2,1.36E2,1.45E2,1.17E2,4.04E2,2.2E2,1.82E2,2.77E2,1.72E2,2.13E2,6.6E1],"tree_param":{"num_deleted":"0","num_feature":"3","num_nodes":"31","size_leaf_vector":"1"}},{"base_weights":[1.5191438E-4,-4.1425247E-2,8.633302E-2,-5.0090555E-2,-5.3873328E-3,5.673521E-2,1.2636855E-1,-3.2427173E-2,-5.1387794E-2,-3.0609863E-2,3.1968553E-2,3.7824225E-2,7.378788E-2,1.09097734E-1,1.5213682E-1,-2.7580194E-3,-1.1898448E-3,-2.616719E-3,-2.058133E-3,-2.707904E-3,-6.359608E-4,7.592043E-4,2.4503935E-3,1.7668012E-3,4.9240366E-3,3.1586352E-3,4.0976196E-3,4.992385E-3,5.965465E-3,6.9822953E-3,8.433427E-3],"categories":[],"categories_nodes":[],"categories_segments":[],"categories_sizes":[],"default_left":[0,0,0,0,0,0,0,0,0,0,0,0,0,0,0,0,0,0,0,0,0,0,0,0,0,0,0,0,0,0,0],"id":24,"left_children":[1,3,5,7,9,11,13,15,17,19,21,23,25,27,29,-1,-1,-1,-1,-1,-1,-1,-1,-1,-1,-1,-1,-1,-1,-1,-1],"loss_changes":[1.8904776E1,1.1111336E0,2.0274143E0,6.407356E-2,6.5204567E-1,3.161447E-1,3.0783558E-1,3.772995E-2,2.3697853E-2,1.733051E-1,7.904866E-2,6.760591E-2,3.9803267E-2,2.9648304E-2,3.6330223E-2,0E0,0E0,0E0,0E0,0E0,0E0,0E0,0E0,0E0,0E0,0E0,0E0,0E0,0E0,0E0,0E0],"parents":[2147483647,0,0,1,1,2,2,3,3,4,4,5,5,6,6,7,7,8,8,9,9,10,10,11,11,12,12,13,13,14,14],"right_children":[2,4,6,8,10,12,14,16,18,20,22,24,26,28,30,-1,-1,-1,-1,-1,-1,-1,-1,-1,-1,-1,-1,-1,-1,-1,-1],"split_conditions":[2.52E-1,4.5E-2,5.19E-1,1E0,1E0,3.85E-1,6.53E-1,1E0,2E-3,1.34E-1,1.22E-1,1E0,4.39E-1,5.8E-1,7.28E-1,-2.7580194E-3,-1.1898448E-3,-2.616719E-3,-2.058133E-3,-2.707904E-3,-6.359608E-4,7.592043E-4,2.4503935E-3,1.7668012E-3,4.9240366E-3,3.1586352E-3,4.0976196E-3,4.992385E-3,5.965465E-3,6.9822953E-3,8.433427E-3],"split_indices":[0,0,0,1,2,0,0,2,0,0,0,2,0,0,0,0,0,0,0,0,0,0,0,0,0,0,0,0,0,0,0],"split_type":[0,0,0,0,0,0,0,0,0,0,0,0,0,0,0,0,0,0,0,0,0,0,0,0,0,0,0,0,0,0,0],"sum_hessian":[5.274E3,3.558E3,1.716E3,2.868E3,6.9E2,9.88E2,7.28E2,1.98E2,2.67E3,4.12E2,2.78E2,4.7E2,5.18E2,4.39E2,2.89E2,5.3E1,1.45E2,2.44E3,2.3E2,1.77E2,2.35E2,1.41E2,1.37E2,4.53E2,1.7E1,2.29E2,2.89E2,2.36E2,2.03E2,1.7E2,1.19E2],"tree_param":{"num_deleted":"0","num_feature":"3","num_nodes":"31","size_leaf_vector":"1"}},{"base_weights":[1.5030356E-4,-3.7067067E-2,8.713198E-2,-4.6159476E-2,5.5983923E-3,6.380233E-2,1.276158E-1,-2.6879082E-2,-4.879069E-2,-1.1614868E-2,4.2492542E-2,4.6852887E-2,8.0759756E-2,1.1511525E-1,1.5390049E-1,-2.6884528E-3,-5.3492904E-4,-2.4750151E-3,-1.8070212E-3,-1.7337681E-3,4.15507E-4,1.5634822E-3,3.5738952E-3,2.0476494E-3,2.8505172E-3,3.4798998E-3,4.304146E-3,5.2478923E-3,6.1962465E-3,7.2384486E-3,8.577308E-3],"categories":[],"categories_nodes":[],"categories_segments":[],"categories_sizes":[],"default_left":[0,0,0,0,0,0,0,0,0,0,0,0,0,0,0,0,0,0,0,0,0,0,0,0,0,0,0,0,0,0,0],"id":25,"left_children":[1,3,5,7,9,11,13,15,17,19,21,23,25,27,29,-1,-1,-1,-1,-1,-1,-1,-1,-1,-1,-1,-1,-1,-1,-1,-1],"loss_changes":[1.7079615E1,1.4336667E0,1.4850702E0,1.5321445E-1,4.1328818E-1,2.8507185E-1,1.7187023E-1,1.5953907E-1,2.2259712E-2,2.0429754E-1,6.510198E-2,2.792883E-2,2.3776054E-2,2.2339344E-2,4.6525E-3,0E0,0E0,0E0,0E0,0E0,0E0,0E0,0E0,0E0,0E0,0E0,0E0,0E0,0E0,0E0,0E0],"parents":[2147483647,0,0,1,1,2,2,3,3,4,4,5,5,6,6,7,7,8,8,9,9,10,10,11,11,12,12,13,13,14,14],"right_children":[2,4,6,8,10,12,14,16,18,20,22,24,26,28,30,-1,-1,-1,-1,-1,-1,-1,-1,-1,-1,-1,-1,-1,-1,-1,-1],"split_conditions":[2.88E-1,1.06E-1,5.58E-1,1E0,1E0,4.25E-1,6.92E-1,1E0,1.3E-2,2E-1,2E-1,3.83E-1,4.66E-1,6.08E-1,7.67E-1,-2.6884528E-3,-5.3492904E-4,-2.4750151E-3,-1.8070212E-3,-1.7337681E-3,4.15507E-4,1.5634822E-3,3.5738952E-3,2.0476494E-3,2.8505172E-3,3.4798998E-3,4.304146E-3,5.2478923E-3,6.1962465E-3,7.2384486E-3,8.577308E-3],"split_indices":[0,0,0,1,2,0,0,2,0,0,0,0,0,0,0,0,0,0,0,0,0,0,0,0,0,0,0,0,0,0,0],"split_type":[0,0,0,0,0,0,0,0,0,0,0,0,0,0,0,0,0,0,0,0,0,0,0,0,0,0,0,0,0,0,0],"sum_hessian":[5.274E3,3.694E3,1.58E3,3.045E3,6.49E2,1.004E3,5.76E2,3.67E2,2.678E3,4.43E2,2.06E2,5.04E2,5E2,3.94E2,1.82E2,1.37E2,2.3E2,2.533E3,1.45E2,2.05E2,2.38E2,1.5E2,5.6E1,3.22E2,1.82E2,1.66E2,3.34E2,1.89E2,2.05E2,1.26E2,5.6E1],"tree_param":{"num_deleted":"0","num_feature":"3","num_nodes":"31","size_leaf_vector":"1"}},{"base_weights":[1.4966138E-4,-3.5682876E-2,8.174092E-2,-4.443448E-2,1.9260148E-3,5.9596736E-2,1.2128225E-1,-2.7020698E-2,-4.636359E-2,-1.5949052E-2,3.5304546E-2,4.3403808E-2,7.6737314E-2,1.09388456E-1,1.462919E-1,-2.5192793E-3,-7.0575177E-4,-2.3622366E-3,-1.8526622E-3,-1.7860404E-3,3.3012795E-4,1.2971194E-3,3.3332098E-3,1.5957654E-3,2.4626607E-3,3.477913E-3,4.222037E-3,4.9868785E-3,5.8879373E-3,7.041166E-3,8.832681E-3],"categories":[],"categories_nodes":[],"categories_segments":[],"categories_sizes":[],"default_left":[0,0,0,0,0,0,0,0,0,0,0,0,0,0,0,0,0,0,0,0,0,0,0,0,0,0,0,0,0,0,0],"id":26,"left_children":[1,3,5,7,9,11,13,15,17,19,21,23,25,27,29,-1,-1,-1,-1,-1,-1,-1,-1,-1,-1,-1,-1,-1,-1,-1,-1],"loss_changes":[1.5425021E1,1.206706E0,1.4025049E0,9.865284E-2,4.14037E-1,2.8366256E-1,1.5563107E-1,8.944909E-2,2.0202637E-2,2.0177585E-1,6.932032E-2,3.431332E-2,2.183342E-2,2.0163536E-2,5.5077076E-3,0E0,0E0,0E0,0E0,0E0,0E0,0E0,0E0,0E0,0E0,0E0,0E0,0E0,0E0,0E0,0E0],"parents":[2147483647,0,0,1,1,2,2,3,3,4,4,5,5,6,6,7,7,8,8,9,9,10,10,11,11,12,12,13,13,14,14],"right_children":[2,4,6,8,10,12,14,16,18,20,22,24,26,28,30,-1,-1,-1,-1,-1,-1,-1,-1,-1,-1,-1,-1,-1,-1,-1,-1],"split_conditions":[2.8E-1,8.9E-2,5.58E-1,1E0,1E0,4.25E-1,6.92E-1,1E0,2E-3,2E-1,2E-1,3.34E-1,4.92E-1,6.08E-1,7.87E-1,-2.5192793E-3,-7.0575177E-4,-2.3622366E-3,-1.8526622E-3,-1.7860404E-3,3.3012795E-4,1.2971194E-3,3.3332098E-3,1.5957654E-3,2.4626607E-3,3.477913E-3,4.222037E-3,4.9868785E-3,5.8879373E-3,7.041166E-3,8.832681E-3],"split_indices":[0,0,0,1,2,0,0,2,0,0,0,0,0,0,0,0,0,0,0,0,0,0,0,0,0,0,0,0,0,0,0],"split_type":[0,0,0,0,0,0,0,0,0,0,0,0,0,0,0,0,0,0,0,0,0,0,0,0,0,0,0,0,0,0,0],"sum_hessian":[5.274E3,3.665E3,1.609E3,2.973E3,6.92E2,1.033E3,5.76E2,2.98E2,2.675E3,4.51E2,2.41E2,5.33E2,5E2,3.94E2,1.82E2,1.05E2,1.93E2,2.44E3,2.35E2,2.4E2,2.11E2,1.87E2,5.4E1,1.82E2,3.51E2,2.64E2,2.36E2,1.89E2,2.05E2,1.59E2,2.3E1],"tree_param":{"num_deleted":"0","num_feature":"3","num_nodes":"31","size_leaf_vector":"1"}},{"base_weights":[1.4867065E-4,-3.55501E-2,7.414505E-2,-4.3001145E-2,-4.562257E-3,4.7049273E-2,1.064061E-1,-2.8534666E-2,-4.4062857E-2,-2.6475176E-2,2.7891498E-2,3.2559432E-2,6.16249E-2,9.189258E-2,1.307622E-1,-2.3671077E-3,-1.0691514E-3,-2.2338252E-3,-1.6102232E-3,-2.364773E-3,-5.329778E-4,7.484924E-4,2.2079113E-3,1.5140352E-3,4.4112597E-3,2.7157932E-3,3.4243495E-3,4.0599904E-3,4.962947E-3,6.1710584E-3,7.6676854E-3],"categories":[],"categories_nodes":[],"categories_segments":[],"categories_sizes":[],"default_left":[0,0,0,0,0,0,0,0,0,0,0,0,0,0,0,0,0,0,0,0,0,0,0,0,0,0,0,0,0,0,0],"id":27,"left_children":[1,3,5,7,9,11,13,15,17,19,21,23,25,27,29,-1,-1,-1,-1,-1,-1,-1,-1,-1,-1,-1,-1,-1,-1,-1,-1],"loss_changes":[1.393697E1,8.21548E-1,1.4958887E0,4.2808056E-2,4.9214756E-1,1.9546413E-1,2.647686E-1,2.5754035E-2,1.7998219E-2,1.3549083E-1,5.7982802E-2,5.7073534E-2,1.9602299E-2,3.0851364E-2,2.9168129E-2,0E0,0E0,0E0,0E0,0E0,0E0,0E0,0E0,0E0,0E0,0E0,0E0,0E0,0E0,0E0,0E0],"parents":[2147483647,0,0,1,1,2,2,3,3,4,4,5,5,6,6,7,7,8,8,9,9,10,10,11,11,12,12,13,13,14,14],"right_children":[2,4,6,8,10,12,14,16,18,20,22,24,26,28,30,-1,-1,-1,-1,-1,-1,-1,-1,-1,-1,-1,-1,-1,-1,-1,-1],"split_conditions":[2.52E-1,4.5E-2,5.03E-1,1E0,1E0,3.85E-1,6.53E-1,1E0,1.4E-2,1.34E-1,1.25E-1,1E0,4.39E-1,5.58E-1,7.62E-1,-2.3671077E-3,-1.0691514E-3,-2.2338252E-3,-1.6102232E-3,-2.364773E-3,-5.329778E-4,7.484924E-4,2.2079113E-3,1.5140352E-3,4.4112597E-3,2.7157932E-3,3.4243495E-3,4.0599904E-3,4.962947E-3,6.1710584E-3,7.6676854E-3],"split_indices":[0,0,0,1,2,0,0,2,0,0,0,2,0,0,0,0,0,0,0,0,0,0,0,0,0,0,0,0,0,0,0],"split_type":[0,0,0,0,0,0,0,0,0,0,0,0,0,0,0,0,0,0,0,0,0,0,0,0,0,0,0,0,0,0,0],"sum_hessian":[5.274E3,3.558E3,1.716E3,2.868E3,6.9E2,9.34E2,7.82E2,1.98E2,2.67E3,4.12E2,2.78E2,4.7E2,4.64E2,4.93E2,2.89E2,5.3E1,1.45E2,2.536E3,1.34E2,1.77E2,2.35E2,1.56E2,1.22E2,4.53E2,1.7E1,2.29E2,2.35E2,2.06E2,2.87E2,2.23E2,6.6E1],"tree_param":{"num_deleted":"0","num_feature":"3","num_nodes":"31","size_leaf_vector":"1"}},{"base_weights":[1.4649023E-4,-3.181404E-2,7.484226E-2,-3.9609168E-2,4.764067E-3,5.485032E-2,1.0953387E-1,-2.330096E-2,-4.183455E-2,-1.0151004E-2,3.67328E-2,4.0386256E-2,6.932039E-2,9.866893E-2,1.3238697E-1,-2.321028E-3,-4.6941926E-4,-2.1301948E-3,-1.6409701E-3,-1.4943209E-3,3.4509544E-4,1.3460458E-3,3.1040628E-3,1.6380697E-3,2.3198186E-3,2.9764173E-3,3.6997434E-3,4.385192E-3,5.2442015E-3,6.3645737E-3,8.042039E-3],"categories":[],"categories_nodes":[],"categories_segments":[],"categories_sizes":[],"default_left":[0,0,0,0,0,0,0,0,0,0,0,0,0,0,0,0,0,0,0,0,0,0,0,0,0,0,0,0,0,0,0],"id":28,"left_children":[1,3,5,7,9,11,13,15,17,19,21,23,25,27,29,-1,-1,-1,-1,-1,-1,-1,-1,-1,-1,-1,-1,-1,-1,-1,-1],"loss_changes":[1.2595475E1,1.0537474E0,1.090498E0,1.0957098E-1,3.1030324E-1,2.0754266E-1,1.3020563E-1,1.1793251E-1,1.718235E-2,1.4963283E-1,4.9812943E-2,2.16223E-2,1.852727E-2,1.7720222E-2,6.058693E-3,0E0,0E0,0E0,0E0,0E0,0E0,0E0,0E0,0E0,0E0,0E0,0E0,0E0,0E0,0E0,0E0],"parents":[2147483647,0,0,1,1,2,2,3,3,4,4,5,5,6,6,7,7,8,8,9,9,10,10,11,11,12,12,13,13,14,14],"right_children":[2,4,6,8,10,12,14,16,18,20,22,24,26,28,30,-1,-1,-1,-1,-1,-1,-1,-1,-1,-1,-1,-1,-1,-1,-1,-1],"split_conditions":[2.88E-1,1.06E-1,5.58E-1,1E0,1E0,4.25E-1,6.92E-1,1E0,5E-3,2E-1,2E-1,3.57E-1,4.66E-1,5.95E-1,7.87E-1,-2.321028E-3,-4.6941926E-4,-2.1301948E-3,-1.6409701E-3,-1.4943209E-3,3.4509544E-4,1.3460458E-3,3.1040628E-3,1.6380697E-3,2.3198186E-3,2.9764173E-3,3.6997434E-3,4.385192E-3,5.2442015E-3,6.3645737E-3,8.042039E-3],"split_indices":[0,0,0,1,2,0,0,2,0,0,0,0,0,0,0,0,0,0,0,0,0,0,0,0,0,0,0,0,0,0,0],"split_type":[0,0,0,0,0,0,0,0,0,0,0,0,0,0,0,0,0,0,0,0,0,0,0,0,0,0,0,0,0,0,0],"sum_hessian":[5.274E3,3.694E3,1.58E3,3.045E3,6.49E2,1.004E3,5.76E2,3.67E2,2.678E3,4.43E2,2.06E2,5.04E2,5E2,3.94E2,1.82E2,1.37E2,2.3E2,2.464E3,2.14E2,2.05E2,2.38E2,1.5E2,5.6E1,2.25E2,2.79E2,1.66E2,3.34E2,1.48E2,2.46E2,1.59E2,2.3E1],"tree_param":{"num_deleted":"0","num_feature":"3","num_nodes":"31","size_leaf_vector":"1"}},{"base_weights":[1.4511957E-4,-3.1205261E-2,6.8918504E-2,-3.883971E-2,-2.19145E-3,4.583896E-2,9.807705E-2,-2.6164994E-2,-3.9769486E-2,-1.9737246E-2,2.6549717E-2,3.276507E-2,5.8562733E-2,8.494519E-2,1.1883157E-1,-2.1370417E-3,-9.927497E-4,-2.3110698E-3,-1.9281072E-3,-2.0077014E-3,-1.6171625E-4,7.5808045E-4,2.1849337E-3,1.5656902E-3,4.732529E-3,2.6718213E-3,3.3113156E-3,3.962128E-3,4.791108E-3,5.5987965E-3,6.947753E-3],"categories":[],"categories_nodes":[],"categories_segments":[],"categories_sizes":[],"default_left":[0,0,0,0,0,0,0,0,0,0,0,0,0,0,0,0,0,0,0,0,0,0,0,0,0,0,0,0,0,0,0],"id":29,"left_children":[1,3,5,7,9,11,13,15,17,19,21,23,25,27,29,-1,-1,-1,-1,-1,-1,-1,-1,-1,-1,-1,-1,-1,-1,-1,-1],"loss_changes":[1.1375429E1,8.026471E-1,1.107244E0,3.2769203E-2,3.8176468E-1,1.51788E-1,1.8859196E-1,1.9965515E-2,1.9023895E-2,1.582303E-1,5.5386886E-2,3.8170278E-2,1.4807582E-2,2.0318985E-2,2.3068428E-2,0E0,0E0,0E0,0E0,0E0,0E0,0E0,0E0,0E0,0E0,0E0,0E0,0E0,0E0,0E0,0E0],"parents":[2147483647,0,0,1,1,2,2,3,3,4,4,5,5,6,6,7,7,8,8,9,9,10,10,11,11,12,12,13,13,14,14],"right_children":[2,4,6,8,10,12,14,16,18,20,22,24,26,28,30,-1,-1,-1,-1,-1,-1,-1,-1,-1,-1,-1,-1,-1,-1,-1,-1],"split_conditions":[2.72E-1,4.5E-2,5.19E-1,1E0,1E0,3.95E-1,6.58E-1,1E0,1E0,1.41E-1,1.29E-1,1E0,4.66E-1,5.95E-1,7.62E-1,-2.1370417E-3,-9.927497E-4,-2.3110698E-3,-1.9281072E-3,-2.0077014E-3,-1.6171625E-4,7.5808045E-4,2.1849337E-3,1.5656902E-3,4.732529E-3,2.6718213E-3,3.3113156E-3,3.962128E-3,4.791108E-3,5.5987965E-3,6.947753E-3],"split_indices":[0,0,0,1,2,0,0,2,2,0,0,2,0,0,0,0,0,0,0,0,0,0,0,0,0,0,0,0,0,0,0],"split_type":[0,0,0,0,0,0,0,0,0,0,0,0,0,0,0,0,0,0,0,0,0,0,0,0,0,0,0,0,0,0,0],"sum_hessian":[5.274E3,3.623E3,1.651E3,2.868E3,7.55E2,9.23E2,7.28E2,1.98E2,2.67E3,4.69E2,2.86E2,4.57E2,4.66E2,4.49E2,2.79E2,5.3E1,1.45E2,4.15E2,2.255E3,2.09E2,2.6E2,1.73E2,1.13E2,4.48E2,9E0,2.84E2,1.82E2,3E2,1.49E2,2.13E2,6.6E1],"tree_param":{"num_deleted":"0","num_feature":"3","num_nodes":"31","size_leaf_vector":"1"}},{"base_weights":[1.429807E-4,-2.8134463E-2,6.90588E-2,-3.576466E-2,5.2990243E-3,5.0981846E-2,9.898382E-2,-2.1161376E-2,-3.7757285E-2,-7.5799925E-3,3.4938376E-2,3.8214162E-2,6.257743E-2,8.9093156E-2,1.1979163E-1,-2.1036759E-3,-4.2883988E-4,-1.9276092E-3,-1.4740351E-3,-1.2325904E-3,4.5878245E-4,1.2122431E-3,3.0418222E-3,3.2890555E-3,1.7962139E-3,2.8682193E-3,3.4852165E-3,4.058623E-3,4.798308E-3,5.7520173E-3,7.323778E-3],"categories":[],"categories_nodes":[],"categories_segments":[],"categories_sizes":[],"default_left":[0,0,0,0,0,0,0,0,0,0,0,0,0,0,0,0,0,0,0,0,0,0,0,0,0,0,0,0,0,0,0],"id":30,"left_children":[1,3,5,7,9,11,13,15,17,19,21,23,25,27,29,-1,-1,-1,-1,-1,-1,-1,-1,-1,-1,-1,-1,-1,-1,-1,-1],"loss_changes":[1.0281669E1,9.545336E-1,8.253174E-1,8.7836266E-2,2.6594594E-1,1.395874E-1,1.0807562E-1,9.648588E-2,1.6488552E-2,1.392461E-1,5.695966E-2,2.6611209E-2,1.4615059E-2,1.3713598E-2,6.3505173E-3,0E0,0E0,0E0,0E0,0E0,0E0,0E0,0E0,0E0,0E0,0E0,0E0,0E0,0E0,0E0,0E0],"parents":[2147483647,0,0,1,1,2,2,3,3,4,4,5,5,6,6,7,7,8,8,9,9,10,10,11,11,12,12,13,13,14,14],"right_children":[2,4,6,8,10,12,14,16,18,20,22,24,26,28,30,-1,-1,-1,-1,-1,-1,-1,-1,-1,-1,-1,-1,-1,-1,-1,-1],"split_conditions":[2.99E-1,1.06E-1,5.58E-1,1E0,1E0,4.25E-1,6.92E-1,1E0,2E-3,2.19E-1,2E-1,3.12E-1,5.03E-1,6.08E-1,7.87E-1,-2.1036759E-3,-4.2883988E-4,-1.9276092E-3,-1.4740351E-3,-1.2325904E-3,4.5878245E-4,1.2122431E-3,3.0418222E-3,3.2890555E-3,1.7962139E-3,2.8682193E-3,3.4852165E-3,4.058623E-3,4.798308E-3,5.7520173E-3,7.323778E-3],"split_indices":[0,0,0,1,2,0,0,2,0,0,0,0,0,0,0,0,0,0,0,0,0,0,0,0,0,0,0,0,0,0,0],"split_type":[0,0,0,0,0,0,0,0,0,0,0,0,0,0,0,0,0,0,0,0,0,0,0,0,0,0,0,0,0,0,0],"sum_hessian":[5.274E3,3.74E3,1.534E3,3.045E3,6.95E2,9.58E2,5.76E2,3.67E2,2.678E3,4.85E2,2.1E2,4.58E2,5E2,3.94E2,1.82E2,1.37E2,2.3E2,2.44E3,2.38E2,2.4E2,2.45E2,1.5E2,6E1,3.3E1,4.25E2,2.94E2,2.06E2,1.89E2,2.05E2,1.59E2,2.3E1],"tree_param":{"num_deleted":"0","num_feature":"3","num_nodes":"31","size_leaf_vector":"1"}},{"base_weights":[1.4169485E-4,-2.8997788E-2,6.0541976E-2,-3.5141293E-2,-3.9003836E-3,3.9807387E-2,8.8588566E-2,-4.1932873E-2,-3.3811398E-2,-2.1958498E-2,2.2691842E-2,2.6551086E-2,5.1760968E-2,7.842497E-2,1.10862315E-1,-1.8912501E-3,-2.7482351E-3,-1.7734211E-3,5.5547507E-4,-1.9615588E-3,-4.235905E-4,3.9262572E-4,1.6154504E-3,1.2281043E-3,3.7621495E-3,2.2330105E-3,2.860706E-3,3.5769008E-3,4.410108E-3,5.2247993E-3,6.3952333E-3],"categories":[],"categories_nodes":[],"categories_segments":[],"categories_sizes":[],"default_left":[0,0,0,0,0,0,0,0,0,0,0,0,0,0,0,0,0,0,0,0,0,0,0,0,0,0,0,0,0,0,0],"id":31,"left_children":[1,3,5,7,9,11,13,15,17,19,21,23,25,27,29,-1,-1,-1,-1,-1,-1,-1,-1,-1,-1,-1,-1,-1,-1,-1,-1],"loss_changes":[9.28593E0,5.486114E-1,9.949684E-1,2.4404764E-2,3.3712232E-1,1.5534294E-1,1.5633726E-1,2.2760272E-2,1.787405E-1,9.7041264E-2,4.0276572E-2,4.3767333E-2,1.754129E-2,2.7626991E-2,1.1154652E-2,0E0,0E0,0E0,0E0,0E0,0E0,0E0,0E0,0E0,0E0,0E0,0E0,0E0,0E0,0E0,0E0],"parents":[2147483647,0,0,1,1,2,2,3,3,4,4,5,5,6,6,7,7,8,8,9,9,10,10,11,11,12,12,13,13,14,14],"right_children":[2,4,6,8,10,12,14,16,18,20,22,24,26,28,30,-1,-1,-1,-1,-1,-1,-1,-1,-1,-1,-1,-1,-1,-1,-1,-1],"split_conditions":[2.52E-1,3.7E-2,5.19E-1,1E0,1E0,3.85E-1,6.77E-1,9E-3,1E-2,1.34E-1,1.13E-1,1E0,4.39E-1,5.95E-1,7.67E-1,-1.8912501E-3,-2.7482351E-3,-1.7734211E-3,5.5547507E-4,-1.9615588E-3,-4.235905E-4,3.9262572E-4,1.6154504E-3,1.2281043E-3,3.7621495E-3,2.2330105E-3,2.860706E-3,3.5769008E-3,4.410108E-3,5.2247993E-3,6.3952333E-3],"split_indices":[0,0,0,2,2,0,0,0,0,0,0,2,0,0,0,0,0,0,0,0,0,0,0,0,0,0,0,0,0,0,0],"split_type":[0,0,0,0,0,0,0,0,0,0,0,0,0,0,0,0,0,0,0,0,0,0,0,0,0,0,0,0,0,0,0],"sum_hessian":[5.274E3,3.558E3,1.716E3,2.858E3,7E2,9.88E2,7.28E2,4.63E2,2.395E3,4.17E2,2.83E2,4.7E2,5.18E2,5.03E2,2.25E2,3.55E2,1.08E2,2.31E3,8.5E1,1.82E2,2.35E2,1.12E2,1.71E2,4.53E2,1.7E1,2.29E2,2.89E2,3E2,2.03E2,1.69E2,5.6E1],"tree_param":{"num_deleted":"0","num_feature":"3","num_nodes":"31","size_leaf_vector":"1"}},{"base_weights":[1.3905793E-4,-2.5421973E-2,6.2434614E-2,-3.2280236E-2,4.629307E-3,4.6113636E-2,8.945261E-2,-1.8926043E-2,-3.410258E-2,-7.071635E-3,3.1558353E-2,3.4716927E-2,5.646289E-2,8.0485485E-2,1.0831906E-1,-1.902489E-3,-3.7097707E-4,-1.9891364E-3,-1.6509959E-3,-1.2453618E-3,3.0143696E-4,1.0807024E-3,2.782862E-3,3.0698415E-3,1.6253025E-3,2.900346E-3,1.6774606E-3,3.669866E-3,4.331621E-3,5.194535E-3,6.666408E-3],"categories":[],"categories_nodes":[],"categories_segments":[],"categories_sizes":[],"default_left":[0,0,0,0,0,0,0,0,0,0,0,0,0,0,0,0,0,0,0,0,0,0,0,0,0,0,0,0,0,0,0],"id":32,"left_children":[1,3,5,7,9,11,13,15,17,19,21,23,25,27,29,-1,-1,-1,-1,-1,-1,-1,-1,-1,-1,-1,-1,-1,-1,-1,-1],"loss_changes":[8.401174E0,7.7116823E-1,6.7274857E-1,7.34818E-2,2.1952944E-1,1.1115146E-1,8.8897705E-2,8.069509E-2,1.5161514E-2,1.13705516E-1,4.936245E-2,2.5078773E-2,1.57789E-2,1.085186E-2,6.415367E-3,0E0,0E0,0E0,0E0,0E0,0E0,0E0,0E0,0E0,0E0,0E0,0E0,0E0,0E0,0E0,0E0],"parents":[2147483647,0,0,1,1,2,2,3,3,4,4,5,5,6,6,7,7,8,8,9,9,10,10,11,11,12,12,13,13,14,14],"right_children":[2,4,6,8,10,12,14,16,18,20,22,24,26,28,30,-1,-1,-1,-1,-1,-1,-1,-1,-1,-1,-1,-1,-1,-1,-1,-1],"split_conditions":[2.99E-1,1.06E-1,5.58E-1,1E0,1E0,4.25E-1,6.92E-1,1E0,1E0,2E-1,2E-1,3.12E-1,5.5E-1,6.08E-1,7.87E-1,-1.902489E-3,-3.7097707E-4,-1.9891364E-3,-1.6509959E-3,-1.2453618E-3,3.0143696E-4,1.0807024E-3,2.782862E-3,3.0698415E-3,1.6253025E-3,2.900346E-3,1.6774606E-3,3.669866E-3,4.331621E-3,5.194535E-3,6.666408E-3],"split_indices":[0,0,0,1,2,0,0,2,2,0,0,0,0,0,0,0,0,0,0,0,0,0,0,0,0,0,0,0,0,0,0],"split_type":[0,0,0,0,0,0,0,0,0,0,0,0,0,0,0,0,0,0,0,0,0,0,0,0,0,0,0,0,0,0,0],"sum_hessian":[5.274E3,3.74E3,1.534E3,3.045E3,6.95E2,9.58E2,5.76E2,3.67E2,2.678E3,4.85E2,2.1E2,4.58E2,5E2,3.94E2,1.82E2,1.37E2,2.3E2,4.23E2,2.255E3,2.05E2,2.8E2,1.5E2,6E1,3.3E1,4.25E2,4.67E2,3.3E1,1.89E2,2.05E2,1.59E2,2.3E1],"tree_param":{"num_deleted":"0","num_feature":"3","num_nodes":"31","size_leaf_vector":"1"}},{"base_weights":[1.3706161E-4,-2.4151674E-2,5.9331864E-2,-3.1691294E-2,6.539641E-4,4.3817632E-2,8.501439E-2,-3.261712E-2,-2.334537E-2,-1.13617275E-2,2.4114827E-2,3.1618673E-2,5.2640624E-2,7.648146E-2,1.0296791E-1,-1.1474912E-3,-1.6564509E-3,-2.3242107E-3,1.0627442E-4,-1.5409767E-3,1.5743171E-4,8.28362E-4,2.6460004E-3,2.9208637E-3,1.4542172E-3,2.250149E-3,2.8761027E-3,3.4091508E-3,4.058888E-3,4.936431E-3,6.3469755E-3],"categories":[],"categories_nodes":[],"categories_segments":[],"categories_sizes":[],"default_left":[0,0,0,0,0,0,0,0,0,0,0,0,0,0,0,0,0,0,0,0,0,0,0,0,0,0,0,0,0,0,0],"id":33,"left_children":[1,3,5,7,9,11,13,15,17,19,21,23,25,27,29,-1,-1,-1,-1,-1,-1,-1,-1,-1,-1,-1,-1,-1,-1,-1,-1],"loss_changes":[7.585654E0,6.996815E-1,6.0788727E-1,2.140665E-2,2.4637137E-1,1.01554036E-1,8.05192E-2,1.2007475E-2,1.7101498E-1,1.6328946E-1,6.347649E-2,2.5807142E-2,1.8103242E-2,9.859085E-3,6.064415E-3,0E0,0E0,0E0,0E0,0E0,0E0,0E0,0E0,0E0,0E0,0E0,0E0,0E0,0E0,0E0,0E0],"parents":[2147483647,0,0,1,1,2,2,3,3,4,4,5,5,6,6,7,7,8,8,9,9,10,10,11,11,12,12,13,13,14,14],"right_children":[2,4,6,8,10,12,14,16,18,20,22,24,26,28,30,-1,-1,-1,-1,-1,-1,-1,-1,-1,-1,-1,-1,-1,-1,-1,-1],"split_conditions":[2.99E-1,4.5E-2,5.58E-1,3E-3,1E0,4.1E-1,6.92E-1,1E0,1E0,1.66E-1,2E-1,3.12E-1,4.66E-1,5.95E-1,7.87E-1,-1.1474912E-3,-1.6564509E-3,-2.3242107E-3,1.0627442E-4,-1.5409767E-3,1.5743171E-4,8.28362E-4,2.6460004E-3,2.9208637E-3,1.4542172E-3,2.250149E-3,2.8761027E-3,3.4091508E-3,4.058888E-3,4.936431E-3,6.3469755E-3],"split_indices":[0,0,0,0,2,0,0,1,2,0,0,0,0,0,0,0,0,0,0,0,0,0,0,0,0,0,0,0,0,0,0],"split_type":[0,0,0,0,0,0,0,0,0,0,0,0,0,0,0,0,0,0,0,0,0,0,0,0,0,0,0,0,0,0,0],"sum_hessian":[5.274E3,3.74E3,1.534E3,2.868E3,8.72E2,9.58E2,5.76E2,2.579E3,2.89E2,5.77E2,2.95E2,4.04E2,5.54E2,3.94E2,1.82E2,1.32E2,2.447E3,1.51E2,1.38E2,2.46E2,3.31E2,2.35E2,6E1,3.3E1,3.71E2,2.2E2,3.34E2,1.48E2,2.46E2,1.59E2,2.3E1],"tree_param":{"num_deleted":"0","num_feature":"3","num_nodes":"31","size_leaf_vector":"1"}},{"base_weights":[1.3500893E-4,-2.4898672E-2,5.202478E-2,-3.0160764E-2,-3.4019323E-3,3.298832E-2,7.469026E-2,-3.6057804E-2,-2.9006178E-2,-1.9023128E-2,1.9601807E-2,2.2526268E-2,4.298642E-2,6.443005E-2,9.191043E-2,-1.622488E-3,-2.427234E-3,-1.5256163E-3,5.902224E-4,-1.7067861E-3,-3.6119294E-4,4.689338E-4,1.517481E-3,1.3277567E-3,-4.0909942E-4,1.9183605E-3,2.377046E-3,2.9598575E-3,3.5789402E-3,4.18042E-3,5.1487456E-3],"categories":[],"categories_nodes":[],"categories_segments":[],"categories_sizes":[],"default_left":[0,0,0,0,0,0,0,0,0,0,0,0,0,0,0,0,0,0,0,0,0,0,0,0,0,0,0,0,0,0,0],"id":34,"left_children":[1,3,5,7,9,11,13,15,17,19,21,23,25,27,29,-1,-1,-1,-1,-1,-1,-1,-1,-1,-1,-1,-1,-1,-1,-1,-1],"loss_changes":[6.8534784E0,4.0248346E-1,7.383704E-1,1.8419981E-2,2.5227436E-1,9.683323E-2,1.3242102E-1,1.9329429E-2,1.4763474E-1,7.429014E-2,3.0920215E-2,5.7004496E-2,8.211315E-3,1.4242411E-2,1.8028975E-2,0E0,0E0,0E0,0E0,0E0,0E0,0E0,0E0,0E0,0E0,0E0,0E0,0E0,0E0,0E0,0E0],"parents":[2147483647,0,0,1,1,2,2,3,3,4,4,5,5,6,6,7,7,8,8,9,9,10,10,11,11,12,12,13,13,14,14],"right_children":[2,4,6,8,10,12,14,16,18,20,22,24,26,28,30,-1,-1,-1,-1,-1,-1,-1,-1,-1,-1,-1,-1,-1,-1,-1,-1],"split_conditions":[2.52E-1,3.7E-2,5.03E-1,1E0,1E0,3.83E-1,6.53E-1,1E-2,1E-2,1.34E-1,1.22E-1,3.7E-1,4.39E-1,5.8E-1,7.28E-1,-1.622488E-3,-2.427234E-3,-1.5256163E-3,5.902224E-4,-1.7067861E-3,-3.6119294E-4,4.689338E-4,1.517481E-3,1.3277567E-3,-4.0909942E-4,1.9183605E-3,2.377046E-3,2.9598575E-3,3.5789402E-3,4.18042E-3,5.1487456E-3],"split_indices":[0,0,0,2,2,0,0,0,0,0,0,0,0,0,0,0,0,0,0,0,0,0,0,0,0,0,0,0,0,0,0],"split_type":[0,0,0,0,0,0,0,0,0,0,0,0,0,0,0,0,0,0,0,0,0,0,0,0,0,0,0,0,0,0,0],"sum_hessian":[5.274E3,3.558E3,1.716E3,2.858E3,7E2,9.34E2,7.82E2,4.63E2,2.395E3,4.17E2,2.83E2,4.58E2,4.76E2,4.93E2,2.89E2,3.62E2,1.01E2,2.31E3,8.5E1,1.82E2,2.35E2,1.46E2,1.37E2,4.05E2,5.3E1,2.41E2,2.35E2,2.9E2,2.03E2,1.7E2,1.19E2],"tree_param":{"num_deleted":"0","num_feature":"3","num_nodes":"31","size_leaf_vector":"1"}},{"base_weights":[1.3129499E-4,-2.1826457E-2,5.3645182E-2,-2.7518773E-2,4.837033E-3,3.965016E-2,7.6812565E-2,-2.9135427E-2,-1.5170868E-2,-5.45057E-3,3.04488E-2,2.8764714E-2,4.7522154E-2,6.770982E-2,9.065042E-2,-1.0141088E-3,-1.487495E-3,-1.9211093E-3,5.308338E-4,-9.3820126E-4,3.401323E-4,1.074917E-3,2.443883E-3,2.7146807E-3,1.3177051E-3,2.0469523E-3,2.6079284E-3,3.079542E-3,3.5923582E-3,4.3608E-3,5.7961363E-3],"categories":[],"categories_nodes":[],"categories_segments":[],"categories_sizes":[],"default_left":[0,0,0,0,0,0,0,0,0,0,0,0,0,0,0,0,0,0,0,0,0,0,0,0,0,0,0,0,0,0,0],"id":35,"left_children":[1,3,5,7,9,11,13,15,17,19,21,23,25,27,29,-1,-1,-1,-1,-1,-1,-1,-1,-1,-1,-1,-1,-1,-1,-1,-1],"loss_changes":[6.199531E0,5.6793106E-1,4.9464464E-1,6.1101437E-2,1.738017E-1,8.080983E-2,6.654239E-2,1.4220715E-2,2.156623E-1,7.696311E-2,3.0124158E-2,2.3492962E-2,1.4804363E-2,4.486203E-3,9.50551E-3,0E0,0E0,0E0,0E0,0E0,0E0,0E0,0E0,0E0,0E0,0E0,0E0,0E0,0E0,0E0,0E0],"parents":[2147483647,0,0,1,1,2,2,3,3,4,4,5,5,6,6,7,7,8,8,9,9,10,10,11,11,12,12,13,13,14,14],"right_children":[2,4,6,8,10,12,14,16,18,20,22,24,26,28,30,-1,-1,-1,-1,-1,-1,-1,-1,-1,-1,-1,-1,-1,-1,-1,-1],"split_conditions":[2.99E-1,1.13E-1,5.58E-1,1.5E-2,1E0,4.1E-1,6.77E-1,1E0,1E0,2.19E-1,2E-1,3.12E-1,4.69E-1,5.95E-1,7.87E-1,-1.0141088E-3,-1.487495E-3,-1.9211093E-3,5.308338E-4,-9.3820126E-4,3.401323E-4,1.074917E-3,2.443883E-3,2.7146807E-3,1.3177051E-3,2.0469523E-3,2.6079284E-3,3.079542E-3,3.5923582E-3,4.3608E-3,5.7961363E-3],"split_indices":[0,0,0,0,2,0,0,1,2,0,0,0,0,0,0,0,0,0,0,0,0,0,0,0,0,0,0,0,0,0,0],"split_type":[0,0,0,0,0,0,0,0,0,0,0,0,0,0,0,0,0,0,0,0,0,0,0,0,0,0,0,0,0,0,0],"sum_hessian":[5.274E3,3.74E3,1.534E3,3.082E3,6.58E2,9.58E2,5.76E2,2.724E3,3.58E2,4.7E2,1.88E2,4.04E2,5.54E2,3.51E2,2.25E2,1.79E2,2.545E3,1.88E2,1.7E2,2.25E2,2.45E2,1.28E2,6E1,3.3E1,3.71E2,2.33E2,3.21E2,1.48E2,2.03E2,2.02E2,2.3E1],"tree_param":{"num_deleted":"0","num_feature":"3","num_nodes":"31","size_leaf_vector":"1"}},{"base_weights":[1.2938278E-4,-2.1178236E-2,4.9927942E-2,-2.7179915E-2,-3.318059E-4,3.369395E-2,6.885478E-2,-2.7987724E-2,-1.9899482E-2,-1.1201616E-2,1.9622134E-2,2.4269804E-2,4.0659428E-2,6.0957007E-2,8.616284E-2,-9.6284127E-4,-1.4225321E-3,-2.0158596E-3,1.2854805E-4,-1.3817103E-3,5.729652E-5,7.0170633E-4,2.12071E-3,1.4907811E-3,4.209689E-4,1.8606576E-3,2.3109356E-3,2.7898278E-3,3.4136202E-3,4.0410436E-3,5.0291703E-3],"categories":[],"categories_nodes":[],"categories_segments":[],"categories_sizes":[],"default_left":[0,0,0,0,0,0,0,0,0,0,0,0,0,0,0,0,0,0,0,0,0,0,0,0,0,0,0,0,0,0,0],"id":36,"left_children":[1,3,5,7,9,11,13,15,17,19,21,23,25,27,29,-1,-1,-1,-1,-1,-1,-1,-1,-1,-1,-1,-1,-1,-1,-1,-1],"loss_changes":[5.5983E0,4.6228588E-1,4.8345494E-1,1.6316175E-2,1.7959243E-1,5.500734E-2,9.43985E-2,9.879589E-3,1.3315418E-1,1.0878722E-1,3.659454E-2,3.1833768E-2,7.648766E-3,1.5217066E-2,9.280443E-3,0E0,0E0,0E0,0E0,0E0,0E0,0E0,0E0,0E0,0E0,0E0,0E0,0E0,0E0,0E0,0E0],"parents":[2147483647,0,0,1,1,2,2,3,3,4,4,5,5,6,6,7,7,8,8,9,9,10,10,11,11,12,12,13,13,14,14],"right_children":[2,4,6,8,10,12,14,16,18,20,22,24,26,28,30,-1,-1,-1,-1,-1,-1,-1,-1,-1,-1,-1,-1,-1,-1,-1,-1],"split_conditions":[2.88E-1,4.5E-2,5.19E-1,3E-3,1E0,3.9E-1,6.77E-1,1E0,1E0,1.52E-1,2E-1,3.7E-1,4.66E-1,5.95E-1,7.67E-1,-9.6284127E-4,-1.4225321E-3,-2.0158596E-3,1.2854805E-4,-1.3817103E-3,5.729652E-5,7.0170633E-4,2.12071E-3,1.4907811E-3,4.209689E-4,1.8606576E-3,2.3109356E-3,2.7898278E-3,3.4136202E-3,4.0410436E-3,5.0291703E-3],"split_indices":[0,0,0,0,2,0,0,1,2,0,0,0,0,0,0,0,0,0,0,0,0,0,0,0,0,0,0,0,0,0,0],"split_type":[0,0,0,0,0,0,0,0,0,0,0,0,0,0,0,0,0,0,0,0,0,0,0,0,0,0,0,0,0,0,0],"sum_hessian":[5.274E3,3.694E3,1.58E3,2.868E3,8.26E2,8.52E2,7.28E2,2.579E3,2.89E2,5.35E2,2.91E2,3.64E2,4.88E2,5.03E2,2.25E2,1.32E2,2.447E3,1.51E2,1.38E2,2.29E2,3.06E2,2.35E2,5.6E1,2.69E2,9.5E1,3.06E2,1.82E2,3E2,2.03E2,1.69E2,5.6E1],"tree_param":{"num_deleted":"0","num_feature":"3","num_nodes":"31","size_leaf_vector":"1"}},{"base_weights":[1.2643883E-4,-1.9708574E-2,4.8466932E-2,-2.485722E-2,4.408239E-3,3.5813898E-2,6.941285E-2,-2.630728E-2,-1.37812495E-2,-4.9915775E-3,2.7809853E-2,2.6021741E-2,4.2894993E-2,6.345446E-2,8.738735E-2,-9.3005906E-4,-1.3420881E-3,-1.7432532E-3,4.8012516E-4,-8.555103E-4,3.0810444E-4,1.153495E-3,2.9717893E-3,2.5105919E-3,1.1870434E-3,2.2118888E-3,1.050889E-3,2.8535067E-3,3.4276408E-3,4.1476493E-3,5.277425E-3],"categories":[],"categories_nodes":[],"categories_segments":[],"categories_sizes":[],"default_left":[0,0,0,0,0,0,0,0,0,0,0,0,0,0,0,0,0,0,0,0,0,0,0,0,0,0,0,0,0,0,0],"id":37,"left_children":[1,3,5,7,9,11,13,15,17,19,21,23,25,27,29,-1,-1,-1,-1,-1,-1,-1,-1,-1,-1,-1,-1,-1,-1,-1,-1],"loss_changes":[5.058806E0,4.646256E-1,4.043343E-1,4.915297E-2,1.4509964E-1,6.53801E-2,5.625105E-2,1.0724306E-2,1.7732848E-1,6.376916E-2,2.696094E-2,2.1153629E-2,1.5373945E-2,1.0311842E-2,2.5994778E-3,0E0,0E0,0E0,0E0,0E0,0E0,0E0,0E0,0E0,0E0,0E0,0E0,0E0,0E0,0E0,0E0],"parents":[2147483647,0,0,1,1,2,2,3,3,4,4,5,5,6,6,7,7,8,8,9,9,10,10,11,11,12,12,13,13,14,14],"right_children":[2,4,6,8,10,12,14,16,18,20,22,24,26,28,30,-1,-1,-1,-1,-1,-1,-1,-1,-1,-1,-1,-1,-1,-1,-1,-1],"split_conditions":[2.99E-1,1.13E-1,5.58E-1,1.5E-2,1E0,4.1E-1,7.13E-1,1E0,1E0,2.19E-1,2.45E-1,3.12E-1,5.5E-1,6.11E-1,7.87E-1,-9.3005906E-4,-1.3420881E-3,-1.7432532E-3,4.8012516E-4,-8.555103E-4,3.0810444E-4,1.153495E-3,2.9717893E-3,2.5105919E-3,1.1870434E-3,2.2118888E-3,1.050889E-3,2.8535067E-3,3.4276408E-3,4.1476493E-3,5.277425E-3],"split_indices":[0,0,0,0,2,0,0,1,2,0,0,0,0,0,0,0,0,0,0,0,0,0,0,0,0,0,0,0,0,0,0],"split_type":[0,0,0,0,0,0,0,0,0,0,0,0,0,0,0,0,0,0,0,0,0,0,0,0,0,0,0,0,0,0,0],"sum_hessian":[5.274E3,3.74E3,1.534E3,3.082E3,6.58E2,9.58E2,5.76E2,2.724E3,3.58E2,4.7E2,1.88E2,4.04E2,5.54E2,4.36E2,1.4E2,1.79E2,2.545E3,1.88E2,1.7E2,2.25E2,2.45E2,1.65E2,2.3E1,3.3E1,3.71E2,5.21E2,3.3E1,1.99E2,2.37E2,1.17E2,2.3E1],"tree_param":{"num_deleted":"0","num_feature":"3","num_nodes":"31","size_leaf_vector":"1"}},{"base_weights":[1.2442016E-4,-1.8723134E-2,4.6058346E-2,-2.3615504E-2,4.1932543E-3,3.403045E-2,6.596943E-2,-2.499275E-2,-1.3095707E-2,-4.7431616E-3,2.6441183E-2,2.6610881E-2,4.264879E-2,6.029611E-2,8.308482E-2,-8.8381453E-4,-1.27501E-3,-1.6565517E-3,4.562592E-4,-8.129242E-4,2.927618E-4,1.0961675E-3,2.8293906E-3,2.6833625E-3,1.2679837E-3,5.8431416E-3,1.9974092E-3,2.7115445E-3,3.2569796E-3,3.9420244E-3,5.024547E-3],"categories":[],"categories_nodes":[],"categories_segments":[],"categories_sizes":[],"default_left":[0,0,0,0,0,0,0,0,0,0,0,0,0,0,0,0,0,0,0,0,0,0,0,0,0,0,0,0,0,0,0],"id":38,"left_children":[1,3,5,7,9,11,13,15,17,19,21,23,25,27,29,-1,-1,-1,-1,-1,-1,-1,-1,-1,-1,-1,-1,-1,-1,-1,-1],"loss_changes":[4.567652E0,4.1952312E-1,3.6536956E-1,4.4340372E-2,1.3114566E-1,6.0187697E-2,5.101776E-2,9.666324E-3,1.6013013E-1,5.7577904E-2,2.4500728E-2,1.6174972E-2,8.391851E-2,9.3051195E-3,2.4940372E-3,0E0,0E0,0E0,0E0,0E0,0E0,0E0,0E0,0E0,0E0,0E0,0E0,0E0,0E0,0E0,0E0],"parents":[2147483647,0,0,1,1,2,2,3,3,4,4,5,5,6,6,7,7,8,8,9,9,10,10,11,11,12,12,13,13,14,14],"right_children":[2,4,6,8,10,12,14,16,18,20,22,24,26,28,30,-1,-1,-1,-1,-1,-1,-1,-1,-1,-1,-1,-1,-1,-1,-1,-1],"split_conditions":[2.99E-1,1.13E-1,5.58E-1,1.5E-2,1E0,4.39E-1,7.13E-1,1E0,1E0,2.19E-1,2.45E-1,3.07E-1,4.42E-1,6.11E-1,7.87E-1,-8.8381453E-4,-1.27501E-3,-1.6565517E-3,4.562592E-4,-8.129242E-4,2.927618E-4,1.0961675E-3,2.8293906E-3,2.6833625E-3,1.2679837E-3,5.8431416E-3,1.9974092E-3,2.7115445E-3,3.2569796E-3,3.9420244E-3,5.024547E-3],"split_indices":[0,0,0,0,2,0,0,1,2,0,0,0,0,0,0,0,0,0,0,0,0,0,0,0,0,0,0,0,0,0,0],"split_type":[0,0,0,0,0,0,0,0,0,0,0,0,0,0,0,0,0,0,0,0,0,0,0,0,0,0,0,0,0,0,0],"sum_hessian":[5.274E3,3.74E3,1.534E3,3.082E3,6.58E2,9.58E2,5.76E2,2.724E3,3.58E2,4.7E2,1.88E2,5.17E2,4.41E2,4.36E2,1.4E2,1.79E2,2.545E3,1.88E2,1.7E2,2.25E2,2.45E2,1.65E2,2.3E1,2.1E1,4.96E2,1.4E1,4.27E2,1.99E2,2.37E2,1.17E2,2.3E1],"tree_param":{"num_deleted":"0","num_feature":"3","num_nodes":"31","size_leaf_vector":"1"}},{"base_weights":[1.2327712E-4,-2.0643057E-2,3.7790574E-2,-2.3743903E-2,-8.131314E-3,2.318643E-2,5.8128424E-2,-1.6797384E-2,-2.4225691E-2,-2.4394898E-2,1.2510925E-2,1.1811011E-2,3.1039374E-2,5.0388504E-2,7.1852684E-2,-1.4509631E-3,-6.1926263E-4,-1.221824E-3,-9.571528E-4,-1.5403116E-3,-5.2349264E-4,6.7891175E-4,-5.0931604E-4,3.6054326E-4,2.0438663E-3,2.0466242E-3,1.4398429E-3,2.3183234E-3,2.7811134E-3,3.36353E-3,4.2707776E-3],"categories":[],"categories_nodes":[],"categories_segments":[],"categories_sizes":[],"default_left":[0,0,0,0,0,0,0,0,0,0,0,0,0,0,0,0,0,0,0,0,0,0,0,0,0,0,0,0,0,0,0],"id":39,"left_children":[1,3,5,7,9,11,13,15,17,19,21,23,25,27,29,-1,-1,-1,-1,-1,-1,-1,-1,-1,-1,-1,-1,-1,-1,-1,-1],"loss_changes":[4.1269464E0,1.3175547E-1,5.555589E-1,8.712888E-3,2.2758546E-1,9.727174E-2,7.9553366E-2,9.346999E-3,2.2597313E-3,3.351386E-2,7.381581E-3,5.9606995E-2,1.3153017E-2,8.030415E-3,1.1654973E-2,0E0,0E0,0E0,0E0,0E0,0E0,0E0,0E0,0E0,0E0,0E0,0E0,0E0,0E0,0E0,0E0],"parents":[2147483647,0,0,1,1,2,2,3,3,4,4,5,5,6,6,7,7,8,8,9,9,10,10,11,11,12,12,13,13,14,14],"right_children":[2,4,6,8,10,12,14,16,18,20,22,24,26,28,30,-1,-1,-1,-1,-1,-1,-1,-1,-1,-1,-1,-1,-1,-1,-1,-1],"split_conditions":[2E-1,1.5E-2,5.03E-1,1E0,1E0,3.34E-1,6.58E-1,1E0,2E-3,1.34E-1,1.81E-1,1E0,3.7E-1,5.8E-1,7.62E-1,-1.4509631E-3,-6.1926263E-4,-1.221824E-3,-9.571528E-4,-1.5403116E-3,-5.2349264E-4,6.7891175E-4,-5.0931604E-4,3.6054326E-4,2.0438663E-3,2.0466242E-3,1.4398429E-3,2.3183234E-3,2.7811134E-3,3.36353E-3,4.2707776E-3],"split_indices":[0,0,0,1,2,0,0,2,0,0,0,2,0,0,0,0,0,0,0,0,0,0,0,0,0,0,0,0,0,0,0],"split_type":[0,0,0,0,0,0,0,0,0,0,0,0,0,0,0,0,0,0,0,0,0,0,0,0,0,0,0,0,0,0,0],"sum_hessian":[5.274E3,3.4E3,1.874E3,2.724E3,6.76E2,1.092E3,7.82E2,1.79E2,2.545E3,3.78E2,2.98E2,4.47E2,6.45E2,5.03E2,2.79E2,4.6E1,1.33E2,2.44E3,1.05E2,2.58E2,1.2E2,2.85E2,1.3E1,3.87E2,6E1,1.16E2,5.29E2,2.9E2,2.13E2,2.13E2,6.6E1],"tree_param":{"num_deleted":"0","num_feature":"3","num_nodes":"31","size_leaf_vector":"1"}},{"base_weights":[1.1947997E-4,-1.7835578E-2,3.95075E-2,-2.2195747E-2,-1.5385039E-3,2.6169019E-2,5.6359697E-2,-2.728335E-2,-2.1201238E-2,-1.1491248E-2,1.4657017E-2,1.4870146E-2,3.147092E-2,4.989342E-2,7.053068E-2,-1.206243E-3,-1.8674424E-3,-1.1249448E-3,4.25393E-4,-1.2630647E-3,-1.425813E-4,3.6817256E-4,1.2990312E-3,5.2153575E-3,6.4907374E-4,3.7223739E-3,1.440441E-3,2.2936163E-3,2.7790968E-3,3.3847156E-3,4.579145E-3],"categories":[],"categories_nodes":[],"categories_segments":[],"categories_sizes":[],"default_left":[0,0,0,0,0,0,0,0,0,0,0,0,0,0,0,0,0,0,0,0,0,0,0,0,0,0,0,0,0,0,0],"id":40,"left_children":[1,3,5,7,9,11,13,15,17,19,21,23,25,27,29,-1,-1,-1,-1,-1,-1,-1,-1,-1,-1,-1,-1,-1,-1,-1,-1],"loss_changes":[3.7312598E0,2.5748014E-1,3.6986613E-1,1.3887048E-2,1.23639874E-1,5.4884672E-2,6.3281775E-2,1.3850361E-2,9.256244E-2,5.6437746E-2,2.392482E-2,4.8814334E-2,6.970352E-2,8.978844E-3,7.295251E-3,0E0,0E0,0E0,0E0,0E0,0E0,0E0,0E0,0E0,0E0,0E0,0E0,0E0,0E0,0E0,0E0],"parents":[2147483647,0,0,1,1,2,2,3,3,4,4,5,5,6,6,7,7,8,8,9,9,10,10,11,11,12,12,13,13,14,14],"right_children":[2,4,6,8,10,12,14,16,18,20,22,24,26,28,30,-1,-1,-1,-1,-1,-1,-1,-1,-1,-1,-1,-1,-1,-1,-1,-1],"split_conditions":[2.72E-1,3.7E-2,5.19E-1,1E0,1E0,3.57E-1,6.77E-1,9E-3,8E-3,1.34E-1,1.29E-1,2.73E-1,3.68E-1,5.95E-1,7.87E-1,-1.206243E-3,-1.8674424E-3,-1.1249448E-3,4.25393E-4,-1.2630647E-3,-1.425813E-4,3.6817256E-4,1.2990312E-3,5.2153575E-3,6.4907374E-4,3.7223739E-3,1.440441E-3,2.2936163E-3,2.7790968E-3,3.3847156E-3,4.579145E-3],"split_indices":[0,0,0,2,2,0,0,0,0,0,0,0,0,0,0,0,0,0,0,0,0,0,0,0,0,0,0,0,0,0,0],"split_type":[0,0,0,0,0,0,0,0,0,0,0,0,0,0,0,0,0,0,0,0,0,0,0,0,0,0,0,0,0,0,0],"sum_hessian":[5.274E3,3.623E3,1.651E3,2.858E3,7.65E2,9.23E2,7.28E2,4.63E2,2.395E3,4.74E2,2.91E2,2.96E2,6.27E2,5.03E2,2.25E2,3.55E2,1.08E2,2.295E3,1E2,1.82E2,2.92E2,1.78E2,1.13E2,5E0,2.91E2,3.5E1,5.92E2,3E2,2.03E2,2.02E2,2.3E1],"tree_param":{"num_deleted":"0","num_feature":"3","num_nodes":"31","size_leaf_vector":"1"}},{"base_weights":[1.174025E-4,-1.744112E-2,3.651266E-2,-2.108728E-2,-2.545522E-3,2.3058545E-2,5.253193E-2,-2.5925806E-2,-2.0141467E-2,-1.3320375E-2,1.3322203E-2,1.3443592E-2,2.9082159E-2,4.5538023E-2,6.493335E-2,-1.1519804E-3,-1.7971551E-3,-1.0638188E-3,5.2950403E-4,-1.2002565E-3,-2.48936E-4,2.654347E-4,1.0880898E-3,5.674933E-4,2.641324E-3,3.5414253E-3,1.3119975E-3,2.0964348E-3,2.511662E-3,3.0353344E-3,3.8732141E-3],"categories":[],"categories_nodes":[],"categories_segments":[],"categories_sizes":[],"default_left":[0,0,0,0,0,0,0,0,0,0,0,0,0,0,0,0,0,0,0,0,0,0,0,0,0,0,0,0,0,0,0],"id":41,"left_children":[1,3,5,7,9,11,13,15,17,19,21,23,25,27,29,-1,-1,-1,-1,-1,-1,-1,-1,-1,-1,-1,-1,-1,-1,-1,-1],"loss_changes":[3.3716094E0,1.9324172E-1,3.6884546E-1,1.256156E-2,1.2002911E-1,5.3761184E-2,6.495619E-2,1.2587011E-2,8.379179E-2,3.713622E-2,1.909161E-2,2.9249862E-2,6.624764E-2,6.4347982E-3,1.0127187E-2,0E0,0E0,0E0,0E0,0E0,0E0,0E0,0E0,0E0,0E0,0E0,0E0,0E0,0E0,0E0,0E0],"parents":[2147483647,0,0,1,1,2,2,3,3,4,4,5,5,6,6,7,7,8,8,9,9,10,10,11,11,12,12,13,13,14,14],"right_children":[2,4,6,8,10,12,14,16,18,20,22,24,26,28,30,-1,-1,-1,-1,-1,-1,-1,-1,-1,-1,-1,-1,-1,-1,-1,-1],"split_conditions":[2.52E-1,3.7E-2,5.03E-1,1E0,1E0,3.57E-1,6.58E-1,1E-2,1E-2,1.34E-1,1.22E-1,1E0,3.68E-1,5.8E-1,7.62E-1,-1.1519804E-3,-1.7971551E-3,-1.0638188E-3,5.2950403E-4,-1.2002565E-3,-2.48936E-4,2.654347E-4,1.0880898E-3,5.674933E-4,2.641324E-3,3.5414253E-3,1.3119975E-3,2.0964348E-3,2.511662E-3,3.0353344E-3,3.8732141E-3],"split_indices":[0,0,0,2,2,0,0,0,0,0,0,2,0,0,0,0,0,0,0,0,0,0,0,0,0,0,0,0,0,0,0],"split_type":[0,0,0,0,0,0,0,0,0,0,0,0,0,0,0,0,0,0,0,0,0,0,0,0,0,0,0,0,0,0,0],"sum_hessian":[5.274E3,3.558E3,1.716E3,2.858E3,7E2,9.34E2,7.82E2,4.63E2,2.395E3,4.17E2,2.83E2,3.61E2,5.73E2,5.03E2,2.79E2,3.62E2,1.01E2,2.31E3,8.5E1,1.82E2,2.35E2,1.46E2,1.37E2,3.44E2,1.7E1,3.5E1,5.38E2,2.9E2,2.13E2,2.13E2,6.6E1],"tree_param":{"num_deleted":"0","num_feature":"3","num_nodes":"31","size_leaf_vector":"1"}},{"base_weights":[1.1456571E-4,-1.7734366E-2,3.2490086E-2,-2.037224E-2,-7.090436E-3,1.8017951E-2,4.7784403E-2,-1.4044812E-2,-2.0811582E-2,-2.113887E-2,1.0740491E-2,1.02718705E-2,2.468248E-2,4.0581185E-2,6.0165416E-2,-1.2645561E-3,-4.9977E-4,-1.0504412E-3,-8.036566E-4,-1.3232782E-3,-4.7812026E-4,5.90634E-4,-5.9649884E-4,3.0859475E-4,1.8091006E-3,1.7885024E-3,1.0697051E-3,1.8577342E-3,2.2550384E-3,2.733508E-3,3.4731962E-3],"categories":[],"categories_nodes":[],"categories_segments":[],"categories_sizes":[],"default_left":[0,0,0,0,0,0,0,0,0,0,0,0,0,0,0,0,0,0,0,0,0,0,0,0,0,0,0,0,0,0,0],"id":42,"left_children":[1,3,5,7,9,11,13,15,17,19,21,23,25,27,29,-1,-1,-1,-1,-1,-1,-1,-1,-1,-1,-1,-1,-1,-1,-1,-1],"loss_changes":[3.0488324E0,9.534669E-2,4.1415405E-1,7.2829723E-3,1.6981325E-1,4.9563617E-2,7.8804255E-2,7.944573E-3,2.0418167E-3,2.3117676E-2,7.408727E-3,4.736815E-2,1.8121064E-2,7.2909594E-3,1.3218045E-2,0E0,0E0,0E0,0E0,0E0,0E0,0E0,0E0,0E0,0E0,0E0,0E0,0E0,0E0,0E0,0E0],"parents":[2147483647,0,0,1,1,2,2,3,3,4,4,5,5,6,6,7,7,8,8,9,9,10,10,11,11,12,12,13,13,14,14],"right_children":[2,4,6,8,10,12,14,16,18,20,22,24,26,28,30,-1,-1,-1,-1,-1,-1,-1,-1,-1,-1,-1,-1,-1,-1,-1,-1],"split_conditions":[2E-1,1.5E-2,4.66E-1,1E0,1E0,3.34E-1,6.34E-1,1E0,2E-3,1.34E-1,1.81E-1,1E0,3.7E-1,5.58E-1,7.28E-1,-1.2645561E-3,-4.9977E-4,-1.0504412E-3,-8.036566E-4,-1.3232782E-3,-4.7812026E-4,5.90634E-4,-5.9649884E-4,3.0859475E-4,1.8091006E-3,1.7885024E-3,1.0697051E-3,1.8577342E-3,2.2550384E-3,2.733508E-3,3.4731962E-3],"split_indices":[0,0,0,1,2,0,0,2,0,0,0,2,0,0,0,0,0,0,0,0,0,0,0,0,0,0,0,0,0,0,0],"split_type":[0,0,0,0,0,0,0,0,0,0,0,0,0,0,0,0,0,0,0,0,0,0,0,0,0,0,0,0,0,0,0],"sum_hessian":[5.274E3,3.4E3,1.874E3,2.724E3,6.76E2,9.64E2,9.1E2,1.79E2,2.545E3,3.78E2,2.98E2,4.47E2,5.17E2,5.78E2,3.32E2,4.6E1,1.33E2,2.44E3,1.05E2,2.58E2,1.2E2,2.85E2,1.3E1,3.87E2,6E1,1.16E2,4.01E2,3.34E2,2.44E2,2.13E2,1.19E2],"tree_param":{"num_deleted":"0","num_feature":"3","num_nodes":"31","size_leaf_vector":"1"}},{"base_weights":[1.1070848E-4,-1.4529272E-2,3.5790224E-2,-1.831306E-2,3.1944672E-3,2.43533E-2,4.8401758E-2,-1.9354956E-2,-1.0353501E-2,-4.0415376E-3,2.1210149E-2,1.6394991E-2,2.8737882E-2,4.2808123E-2,6.0661897E-2,-6.676187E-4,-9.885866E-4,-1.2850735E-3,3.3352943E-4,-6.5512554E-4,2.1496E-4,8.6739886E-4,2.3519879E-3,1.2056225E-3,-5.023001E-4,1.3107593E-3,1.6613234E-3,1.9680827E-3,2.3841753E-3,2.902928E-3,4.0077115E-3],"categories":[],"categories_nodes":[],"categories_segments":[],"categories_sizes":[],"default_left":[0,0,0,0,0,0,0,0,0,0,0,0,0,0,0,0,0,0,0,0,0,0,0,0,0,0,0,0,0,0,0],"id":43,"left_children":[1,3,5,7,9,11,13,15,17,19,21,23,25,27,29,-1,-1,-1,-1,-1,-1,-1,-1,-1,-1,-1,-1,-1,-1,-1,-1],"loss_changes":[2.7559028E0,2.5094062E-1,2.2022533E-1,2.5367022E-2,8.599399E-2,2.7688205E-2,4.7397137E-2,6.5532923E-3,9.397283E-2,3.5652246E-2,1.8038303E-2,5.9214786E-2,5.005777E-3,6.5916777E-3,6.814778E-3,0E0,0E0,0E0,0E0,0E0,0E0,0E0,0E0,0E0,0E0,0E0,0E0,0E0,0E0,0E0,0E0],"parents":[2147483647,0,0,1,1,2,2,3,3,4,4,5,5,6,6,7,7,8,8,9,9,10,10,11,11,12,12,13,13,14,14],"right_children":[2,4,6,8,10,12,14,16,18,20,22,24,26,28,30,-1,-1,-1,-1,-1,-1,-1,-1,-1,-1,-1,-1,-1,-1,-1,-1],"split_conditions":[2.99E-1,1.13E-1,5.19E-1,1.5E-2,1E0,3.85E-1,6.77E-1,1E0,1E0,2.19E-1,2.45E-1,3.7E-1,4.66E-1,5.95E-1,7.87E-1,-6.676187E-4,-9.885866E-4,-1.2850735E-3,3.3352943E-4,-6.5512554E-4,2.1496E-4,8.6739886E-4,2.3519879E-3,1.2056225E-3,-5.023001E-4,1.3107593E-3,1.6613234E-3,1.9680827E-3,2.3841753E-3,2.902928E-3,4.0077115E-3],"split_indices":[0,0,0,0,2,0,0,1,2,0,0,0,0,0,0,0,0,0,0,0,0,0,0,0,0,0,0,0,0,0,0],"split_type":[0,0,0,0,0,0,0,0,0,0,0,0,0,0,0,0,0,0,0,0,0,0,0,0,0,0,0,0,0,0,0],"sum_hessian":[5.274E3,3.74E3,1.534E3,3.082E3,6.58E2,8.06E2,7.28E2,2.724E3,3.58E2,4.7E2,1.88E2,2.88E2,5.18E2,5.03E2,2.25E2,1.79E2,2.545E3,1.88E2,1.7E2,2.25E2,2.45E2,1.65E2,2.3E1,2.23E2,6.5E1,3.36E2,1.82E2,3E2,2.03E2,2.02E2,2.3E1],"tree_param":{"num_deleted":"0","num_feature":"3","num_nodes":"31","size_leaf_vector":"1"}},{"base_weights":[1.08035674E-4,-1.34774735E-2,3.482242E-2,-1.7398253E-2,3.5665252E-3,2.5981624E-2,4.8674446E-2,-1.8387817E-2,-9.838477E-3,-2.4507067E-3,2.0166676E-2,1.8616121E-2,3.0632807E-2,4.4306323E-2,6.1867315E-2,-6.344233E-4,-9.391767E-4,-1.2211598E-3,3.1695043E-4,-6.1852144E-5,-3.5746046E-3,8.905179E-4,3.0281867E-3,1.3302822E-3,5.4596993E-4,1.6029527E-3,3.9173846E-4,3.5646379E-3,2.1721069E-3,2.9202402E-3,3.8156756E-3],"categories":[],"categories_nodes":[],"categories_segments":[],"categories_sizes":[],"default_left":[0,0,0,0,0,0,0,0,0,0,0,0,0,0,0,0,0,0,0,0,0,0,0,0,0,0,0,0,0,0,0],"id":44,"left_children":[1,3,5,7,9,11,13,15,17,19,21,23,25,27,29,-1,-1,-1,-1,-1,-1,-1,-1,-1,-1,-1,-1,-1,-1,-1,-1],"loss_changes":[2.4882257E0,2.5346535E-1,1.8047035E-1,2.288264E-2,7.096916E-2,3.0536294E-2,3.0510306E-2,5.907476E-3,8.485873E-2,4.3651517E-2,1.6911939E-2,2.1478042E-2,1.7794967E-2,7.0943236E-3,2.5957227E-3,0E0,0E0,0E0,0E0,0E0,0E0,0E0,0E0,0E0,0E0,0E0,0E0,0E0,0E0,0E0,0E0],"parents":[2147483647,0,0,1,1,2,2,3,3,4,4,5,5,6,6,7,7,8,8,9,9,10,10,11,11,12,12,13,13,14,14],"right_children":[2,4,6,8,10,12,14,16,18,20,22,24,26,28,30,-1,-1,-1,-1,-1,-1,-1,-1,-1,-1,-1,-1,-1,-1,-1,-1],"split_conditions":[3.17E-1,1.13E-1,5.58E-1,1.5E-2,1E0,4.1E-1,7.13E-1,1E0,1E0,3.15E-1,2.72E-1,3.7E-1,5.5E-1,5.62E-1,7.87E-1,-6.344233E-4,-9.391767E-4,-1.2211598E-3,3.1695043E-4,-6.1852144E-5,-3.5746046E-3,8.905179E-4,3.0281867E-3,1.3302822E-3,5.4596993E-4,1.6029527E-3,3.9173846E-4,3.5646379E-3,2.1721069E-3,2.9202402E-3,3.8156756E-3],"split_indices":[0,0,0,0,2,0,0,1,2,0,0,0,0,0,0,0,0,0,0,0,0,0,0,0,0,0,0,0,0,0,0],"split_type":[0,0,0,0,0,0,0,0,0,0,0,0,0,0,0,0,0,0,0,0,0,0,0,0,0,0,0,0,0,0,0],"sum_hessian":[5.274E3,3.791E3,1.483E3,3.082E3,7.09E2,9.07E2,5.76E2,2.724E3,3.58E2,5.21E2,1.88E2,3.53E2,5.54E2,4.36E2,1.4E2,1.79E2,2.545E3,1.88E2,1.7E2,5.13E2,8E0,1.79E2,9E0,1.72E2,1.81E2,5.21E2,3.3E1,1.1E1,4.25E2,1.17E2,2.3E1],"tree_param":{"num_deleted":"0","num_feature":"3","num_nodes":"31","size_leaf_vector":"1"}},{"base_weights":[1.0531536E-4,-1.5258233E-2,2.7972687E-2,-1.7469002E-2,-6.3371006E-3,1.5740057E-2,4.1263934E-2,-1.2057567E-2,-1.7844725E-2,-1.8484047E-2,9.081058E-3,9.779444E-3,2.245853E-2,3.497462E-2,5.1829964E-2,-1.1389566E-3,-4.1035181E-4,-9.0159196E-4,-6.68374E-4,-1.1567209E-3,-4.188592E-4,5.065305E-4,-6.5042224E-4,3.419145E-4,1.589916E-3,3.1590578E-3,9.47399E-4,3.7741703E-3,1.698046E-3,2.3542016E-3,2.993082E-3],"categories":[],"categories_nodes":[],"categories_segments":[],"categories_sizes":[],"default_left":[0,0,0,0,0,0,0,0,0,0,0,0,0,0,0,0,0,0,0,0,0,0,0,0,0,0,0,0,0,0,0],"id":45,"left_children":[1,3,5,7,9,11,13,15,17,19,21,23,25,27,29,-1,-1,-1,-1,-1,-1,-1,-1,-1,-1,-1,-1,-1,-1,-1,-1],"loss_changes":[2.2588747E0,6.69657E-2,3.0420077E-1,5.3253174E-3,1.269588E-1,3.8945556E-2,5.7862043E-2,7.2441194E-3,1.891911E-3,1.761946E-2,7.0638265E-3,3.3458218E-2,6.442094E-2,2.067864E-2,9.8747015E-3,0E0,0E0,0E0,0E0,0E0,0E0,0E0,0E0,0E0,0E0,0E0,0E0,0E0,0E0,0E0,0E0],"parents":[2147483647,0,0,1,1,2,2,3,3,4,4,5,5,6,6,7,7,8,8,9,9,10,10,11,11,12,12,13,13,14,14],"right_children":[2,4,6,8,10,12,14,16,18,20,22,24,26,28,30,-1,-1,-1,-1,-1,-1,-1,-1,-1,-1,-1,-1,-1,-1,-1,-1],"split_conditions":[2E-1,1.5E-2,4.69E-1,1E0,1E0,3.57E-1,6.34E-1,1E0,2E-3,1.34E-1,1.81E-1,1E0,3.68E-1,4.72E-1,7.28E-1,-1.1389566E-3,-4.1035181E-4,-9.0159196E-4,-6.68374E-4,-1.1567209E-3,-4.188592E-4,5.065305E-4,-6.5042224E-4,3.419145E-4,1.589916E-3,3.1590578E-3,9.47399E-4,3.7741703E-3,1.698046E-3,2.3542016E-3,2.993082E-3],"split_indices":[0,0,0,1,2,0,0,2,0,0,0,2,0,0,0,0,0,0,0,0,0,0,0,0,0,0,0,0,0,0,0],"split_type":[0,0,0,0,0,0,0,0,0,0,0,0,0,0,0,0,0,0,0,0,0,0,0,0,0,0,0,0,0,0,0],"sum_hessian":[5.274E3,3.4E3,1.874E3,2.724E3,6.76E2,9.77E2,8.97E2,1.79E2,2.545E3,3.78E2,2.98E2,5.19E2,4.58E2,5.65E2,3.32E2,4.6E1,1.33E2,2.44E3,1.05E2,2.58E2,1.2E2,2.85E2,1.3E1,4.59E2,6E1,3.5E1,4.23E2,1.2E1,5.53E2,2.13E2,1.19E2],"tree_param":{"num_deleted":"0","num_feature":"3","num_nodes":"31","size_leaf_vector":"1"}},{"base_weights":[1.0232933E-4,-1.3558399E-2,2.8418247E-2,-1.6338456E-2,-2.2007027E-3,1.8592255E-2,4.170972E-2,-2.067807E-2,-1.5491245E-2,-1.0471315E-2,9.97999E-3,1.1589181E-2,2.4610749E-2,3.689514E-2,5.2262112E-2,-8.8079285E-4,-1.4123273E-3,-8.2578463E-4,3.9752666E-4,-9.268431E-4,-2.0863644E-4,2.220053E-4,9.620464E-4,7.7503145E-4,-9.016869E-4,1.132688E-3,1.4104223E-3,1.8704025E-3,7.322654E-4,2.4966293E-3,3.4894228E-3],"categories":[],"categories_nodes":[],"categories_segments":[],"categories_sizes":[],"default_left":[0,0,0,0,0,0,0,0,0,0,0,0,0,0,0,0,0,0,0,0,0,0,0,0,0,0,0,0,0,0,0],"id":46,"left_children":[1,3,5,7,9,11,13,15,17,19,21,23,25,27,29,-1,-1,-1,-1,-1,-1,-1,-1,-1,-1,-1,-1,-1,-1,-1,-1],"loss_changes":[2.0408397E0,1.12339735E-1,2.2346807E-1,1.0190964E-2,7.072451E-2,4.139912E-2,3.5108924E-2,1.0256216E-2,5.767089E-2,2.1157693E-2,1.4485054E-2,5.3463183E-2,3.0995607E-3,5.2039027E-3,5.7424903E-3,0E0,0E0,0E0,0E0,0E0,0E0,0E0,0E0,0E0,0E0,0E0,0E0,0E0,0E0,0E0,0E0],"parents":[2147483647,0,0,1,1,2,2,3,3,4,4,5,5,6,6,7,7,8,8,9,9,10,10,11,11,12,12,13,13,14,14],"right_children":[2,4,6,8,10,12,14,16,18,20,22,24,26,28,30,-1,-1,-1,-1,-1,-1,-1,-1,-1,-1,-1,-1,-1,-1,-1,-1],"split_conditions":[2.52E-1,3.7E-2,5.19E-1,1E0,1E0,3.83E-1,6.77E-1,5E-3,8E-3,1.34E-1,1.29E-1,3.7E-1,4.66E-1,6.74E-1,7.87E-1,-8.8079285E-4,-1.4123273E-3,-8.2578463E-4,3.9752666E-4,-9.268431E-4,-2.0863644E-4,2.220053E-4,9.620464E-4,7.7503145E-4,-9.016869E-4,1.132688E-3,1.4104223E-3,1.8704025E-3,7.322654E-4,2.4966293E-3,3.4894228E-3],"split_indices":[0,0,0,2,2,0,0,0,0,0,0,0,0,0,0,0,0,0,0,0,0,0,0,0,0,0,0,0,0,0,0],"split_type":[0,0,0,0,0,0,0,0,0,0,0,0,0,0,0,0,0,0,0,0,0,0,0,0,0,0,0,0,0,0,0],"sum_hessian":[5.274E3,3.558E3,1.716E3,2.858E3,7E2,9.88E2,7.28E2,4.63E2,2.395E3,4.17E2,2.83E2,4.58E2,5.3E2,5.03E2,2.25E2,3.32E2,1.31E2,2.295E3,1E2,1.82E2,2.35E2,1.78E2,1.05E2,4.05E2,5.3E1,3.48E2,1.82E2,4.91E2,1.2E1,2.02E2,2.3E1],"tree_param":{"num_deleted":"0","num_feature":"3","num_nodes":"31","size_leaf_vector":"1"}},{"base_weights":[9.8793374E-5,-1.1880936E-2,2.929493E-2,-1.4933234E-2,2.4166603E-3,1.991704E-2,3.963603E-2,-1.577153E-2,-8.528527E-3,-3.7329788E-3,1.7729165E-2,1.3197179E-2,2.3384994E-2,3.5658233E-2,5.1309366E-2,-5.3887797E-4,-8.059203E-4,-1.0470367E-3,2.620051E-4,-7.145581E-4,7.45551E-5,7.7603146E-4,2.7854952E-3,1.0226899E-3,-8.5743674E-4,1.0762154E-3,1.3402863E-3,1.6023979E-3,1.9956718E-3,2.4359212E-3,3.3222206E-3],"categories":[],"categories_nodes":[],"categories_segments":[],"categories_sizes":[],"default_left":[0,0,0,0,0,0,0,0,0,0,0,0,0,0,0,0,0,0,0,0,0,0,0,0,0,0,0,0,0,0,0],"id":47,"left_children":[1,3,5,7,9,11,13,15,17,19,21,23,25,27,29,-1,-1,-1,-1,-1,-1,-1,-1,-1,-1,-1,-1,-1,-1,-1,-1],"loss_changes":[1.8453416E0,1.6329539E-1,1.4807153E-1,1.6418219E-2,6.2121823E-2,1.8497854E-2,3.2020926E-2,4.5467615E-3,6.1462495E-2,2.600016E-2,1.4989015E-2,6.134856E-2,2.8027594E-3,7.124126E-3,3.939092E-3,0E0,0E0,0E0,0E0,0E0,0E0,0E0,0E0,0E0,0E0,0E0,0E0,0E0,0E0,0E0,0E0],"parents":[2147483647,0,0,1,1,2,2,3,3,4,4,5,5,6,6,7,7,8,8,9,9,10,10,11,11,12,12,13,13,14,14],"right_children":[2,4,6,8,10,12,14,16,18,20,22,24,26,28,30,-1,-1,-1,-1,-1,-1,-1,-1,-1,-1,-1,-1,-1,-1,-1,-1],"split_conditions":[2.99E-1,1.13E-1,5.19E-1,1.5E-2,1E0,3.83E-1,6.92E-1,1E0,1E0,1.75E-1,2.72E-1,3.7E-1,4.66E-1,5.95E-1,7.87E-1,-5.3887797E-4,-8.059203E-4,-1.0470367E-3,2.620051E-4,-7.145581E-4,7.45551E-5,7.7603146E-4,2.7854952E-3,1.0226899E-3,-8.5743674E-4,1.0762154E-3,1.3402863E-3,1.6023979E-3,1.9956718E-3,2.4359212E-3,3.3222206E-3],"split_indices":[0,0,0,0,2,0,0,1,2,0,0,0,0,0,0,0,0,0,0,0,0,0,0,0,0,0,0,0,0,0,0],"split_type":[0,0,0,0,0,0,0,0,0,0,0,0,0,0,0,0,0,0,0,0,0,0,0,0,0,0,0,0,0,0,0],"sum_hessian":[5.274E3,3.74E3,1.534E3,3.082E3,6.58E2,8.06E2,7.28E2,2.724E3,3.58E2,4.7E2,1.88E2,2.76E2,5.3E2,5.46E2,1.82E2,1.79E2,2.545E3,1.88E2,1.7E2,1.55E2,3.15E2,1.79E2,9E0,2.23E2,5.3E1,3.48E2,1.82E2,3E2,2.46E2,1.59E2,2.3E1],"tree_param":{"num_deleted":"0","num_feature":"3","num_nodes":"31","size_leaf_vector":"1"}},{"base_weights":[9.626451E-5,-1.3104194E-2,2.4040084E-2,-1.4966879E-2,-5.4180655E-3,1.4456183E-2,3.6541495E-2,-1.0409295E-2,-1.5285547E-2,-1.5833527E-2,8.02254E-3,8.206204E-3,2.0403855E-2,3.0853644E-2,4.4647545E-2,-1.0137472E-3,-3.4616518E-4,-7.746793E-4,-5.3879956E-4,-9.916394E-4,-3.6372393E-4,4.5518283E-4,-7.009196E-4,2.763168E-4,1.4140258E-3,2.9181032E-3,8.8395504E-4,2.4384249E-3,1.5165298E-3,2.102284E-3,2.8254208E-3],"categories":[],"categories_nodes":[],"categories_segments":[],"categories_sizes":[],"default_left":[0,0,0,0,0,0,0,0,0,0,0,0,0,0,0,0,0,0,0,0,0,0,0,0,0,0,0,0,0,0,0],"id":48,"left_children":[1,3,5,7,9,11,13,15,17,19,21,23,25,27,29,-1,-1,-1,-1,-1,-1,-1,-1,-1,-1,-1,-1,-1,-1,-1,-1],"loss_changes":[1.6675811E0,4.861045E-2,2.2411966E-1,3.8160086E-3,9.322045E-2,3.9347276E-2,3.6106706E-2,6.1188936E-3,2.2310019E-3,1.269193E-2,7.0618074E-3,2.7817894E-2,5.523236E-2,3.027916E-3,7.900536E-3,0E0,0E0,0E0,0E0,0E0,0E0,0E0,0E0,0E0,0E0,0E0,0E0,0E0,0E0,0E0,0E0],"parents":[2147483647,0,0,1,1,2,2,3,3,4,4,5,5,6,6,7,7,8,8,9,9,10,10,11,11,12,12,13,13,14,14],"right_children":[2,4,6,8,10,12,14,16,18,20,22,24,26,28,30,-1,-1,-1,-1,-1,-1,-1,-1,-1,-1,-1,-1,-1,-1,-1,-1],"split_conditions":[2E-1,1.6E-2,4.92E-1,1E0,1E0,3.57E-1,6.34E-1,1E0,2E-3,1.34E-1,1.81E-1,1E0,3.68E-1,4.94E-1,7.67E-1,-1.0137472E-3,-3.4616518E-4,-7.746793E-4,-5.3879956E-4,-9.916394E-4,-3.6372393E-4,4.5518283E-4,-7.009196E-4,2.763168E-4,1.4140258E-3,2.9181032E-3,8.8395504E-4,2.4384249E-3,1.5165298E-3,2.102284E-3,2.8254208E-3],"split_indices":[0,0,0,1,2,0,0,2,0,0,0,2,0,0,0,0,0,0,0,0,0,0,0,0,0,0,0,0,0,0,0],"split_type":[0,0,0,0,0,0,0,0,0,0,0,0,0,0,0,0,0,0,0,0,0,0,0,0,0,0,0,0,0,0,0],"sum_hessian":[5.274E3,3.4E3,1.874E3,2.736E3,6.64E2,1.062E3,8.12E2,1.81E2,2.555E3,3.74E2,2.9E2,5.19E2,5.43E2,4.8E2,3.32E2,4.6E1,1.35E2,2.44E3,1.15E2,2.54E2,1.2E2,2.77E2,1.3E1,4.59E2,6E1,3.5E1,5.08E2,1.1E1,4.69E2,2.76E2,5.6E1],"tree_param":{"num_deleted":"0","num_feature":"3","num_nodes":"31","size_leaf_vector":"1"}},{"base_weights":[9.3367016E-5,-1.11112315E-2,2.5606388E-2,-1.3994295E-2,-7.320072E-4,1.7126976E-2,3.5830308E-2,-1.7907104E-2,-1.32241575E-2,-6.50377E-3,9.400956E-3,1.0905676E-2,2.1218821E-2,3.2207515E-2,4.646329E-2,-7.5899437E-4,-1.220266E-3,-7.072505E-4,3.4233002E-4,-6.939972E-4,2.241958E-5,2.3416219E-4,1.0088517E-3,7.970293E-4,-8.587385E-4,1.1797415E-3,9.4690546E-4,1.4469693E-3,1.8029871E-3,2.2029725E-3,3.0276442E-3],"categories":[],"categories_nodes":[],"categories_segments":[],"categories_sizes":[],"default_left":[0,0,0,0,0,0,0,0,0,0,0,0,0,0,0,0,0,0,0,0,0,0,0,0,0,0,0,0,0,0,0],"id":49,"left_children":[1,3,5,7,9,11,13,15,17,19,21,23,25,27,29,-1,-1,-1,-1,-1,-1,-1,-1,-1,-1,-1,-1,-1,-1,-1,-1],"loss_changes":[1.5082126E0,1.09691024E-1,1.3896191E-1,8.408666E-3,4.6732225E-2,2.2221297E-2,2.65854E-2,7.9411715E-3,4.4472605E-2,2.610792E-2,1.464865E-2,5.0040428E-2,2.4306625E-3,5.842924E-3,3.530115E-3,0E0,0E0,0E0,0E0,0E0,0E0,0E0,0E0,0E0,0E0,0E0,0E0,0E0,0E0,0E0,0E0],"parents":[2147483647,0,0,1,1,2,2,3,3,4,4,5,5,6,6,7,7,8,8,9,9,10,10,11,11,12,12,13,13,14,14],"right_children":[2,4,6,8,10,12,14,16,18,20,22,24,26,28,30,-1,-1,-1,-1,-1,-1,-1,-1,-1,-1,-1,-1,-1,-1,-1,-1],"split_conditions":[2.8E-1,4.5E-2,5.19E-1,1E0,1E0,3.83E-1,6.92E-1,5E-3,8E-3,1.66E-1,1.41E-1,3.7E-1,4.42E-1,5.95E-1,7.87E-1,-7.5899437E-4,-1.220266E-3,-7.072505E-4,3.4233002E-4,-6.939972E-4,2.241958E-5,2.3416219E-4,1.0088517E-3,7.970293E-4,-8.587385E-4,1.1797415E-3,9.4690546E-4,1.4469693E-3,1.8029871E-3,2.2029725E-3,3.0276442E-3],"split_indices":[0,0,0,2,2,0,0,0,0,0,0,0,0,0,0,0,0,0,0,0,0,0,0,0,0,0,0,0,0,0,0],"split_type":[0,0,0,0,0,0,0,0,0,0,0,0,0,0,0,0,0,0,0,0,0,0,0,0,0,0,0,0,0,0,0],"sum_hessian":[5.274E3,3.665E3,1.609E3,2.868E3,7.97E2,8.81E2,7.28E2,4.68E2,2.4E3,5.08E2,2.89E2,3.51E2,5.3E2,5.46E2,1.82E2,3.32E2,1.36E2,2.295E3,1.05E2,2.46E2,2.62E2,2.02E2,8.7E1,2.98E2,5.3E1,2.55E2,2.75E2,3E2,2.46E2,1.59E2,2.3E1],"tree_param":{"num_deleted":"0","num_feature":"3","num_nodes":"31","size_leaf_vector":"1"}},{"base_weights":[9.036104E-5,-1.0207548E-2,2.5187682E-2,-1.2822162E-2,2.0398935E-3,1.8609988E-2,3.6076453E-2,-1.3514359E-2,-7.3254406E-3,-3.396336E-3,1.5576529E-2,1.3032912E-2,2.2646213E-2,3.277767E-2,4.604448E-2,-4.6591304E-4,-6.9039274E-4,-8.9111924E-4,2.3166054E-4,-5.0440215E-4,1.382568E-4,6.75686E-4,2.5574726E-3,1.9805648E-3,5.2843353E-4,1.2053283E-3,-2.2027554E-5,3.0284354E-3,1.5958941E-3,2.1931252E-3,3.0724457E-3],"categories":[],"categories_nodes":[],"categories_segments":[],"categories_sizes":[],"default_left":[0,0,0,0,0,0,0,0,0,0,0,0,0,0,0,0,0,0,0,0,0,0,0,0,0,0,0,0,0,0,0],"id":50,"left_children":[1,3,5,7,9,11,13,15,17,19,21,23,25,27,29,-1,